{"learner":{"attributes":{"scikit_learn":"{\"_estimator_type\": \"classifier\"}"},"feature_names":[],"feature_types":[],"gradient_booster":{"model":{"gbtree_model_param":{"num_parallel_tree":"1","num_trees":"100"},"iteration_indptr":[0,1,2,3,4,5,6,7,8,9,10,11,12,13,14,15,16,17,18,19,20,21,22,23,24,25,26,27,28,29,30,31,32,33,34,35,36,37,38,39,40,41,42,43,44,45,46,47,48,49,50,51,52,53,54,55,56,57,58,59,60,61,62,63,64,65,66,67,68,69,70,71,72,73,74,75,76,77,78,79,80,81,82,83,84,85,86,87,88,89,90,91,92,93,94,95,96,97,98,99,100],"tree_info":[0,0,0,0,0,0,0,0,0,0,0,0,0,0,0,0,0,0,0,0,0,0,0,0,0,0,0,0,0,0,0,0,0,0,0,0,0,0,0,0,0,0,0,0,0,0,0,0,0,0,0,0,0,0,0,0,0,0,0,0,0,0,0,0,0,0,0,0,0,0,0,0,0,0,0,0,0,0,0,0,0,0,0,0,0,0,0,0,0,0,0,0,0,0,0,0,0,0,0,0],"trees":[{"base_weights":[-1.1265987E0,-1.1280445E0,2.1388247E0,-3.4074935E-1,-9.91955E-1,6.3942784E-1,-1.0330367E0,1.2454334E0,-7.5626004E-1,-6.9842345E-1,-1.0914263E0,-5.145418E-1,1.7056384E0,-9.2238826E-1,1.6070606E-1,-1.4476243E-1,-8.833254E-1,-8.5801876E-1,-1.0989513E0,2.3410465E-1,-2.5060868E-1,5.9496522E-2,7.081227E-1,3.9458103E-2,-3.1497377E-1,-2.2805883E-1,7.1075134E-2,-2.7991316E-1,9.938211E-2,-2.708753E-1,1.2136967E-1,-3.30361E-1,-1.6552451E-1],"categories":[],"categories_nodes":[],"categories_segments":[],"categories_sizes":[],"default_left":[0,0,0,0,0,0,0,0,0,0,0,0,0,0,0,0,0,0,0,0,0,0,0,0,0,0,0,0,0,0,0,0,0],"id":0,"left_children":[1,3,-1,-1,5,7,9,11,13,15,17,19,21,23,-1,25,27,29,31,-1,-1,-1,-1,-1,-1,-1,-1,-1,-1,-1,-1,-1,-1],"loss_changes":[4.6175E2,3.9148438E1,0E0,0E0,1.3904138E2,4.4361374E1,3.859546E1,3.0174976E1,3.9633522E0,3.0795609E1,2.0662842E0,4.0858126E0,2.8060349E1,2.1123753E0,0E0,1.8224892E1,1.397171E1,3.6574936E0,1.4334717E0,0E0,0E0,0E0,0E0,0E0,0E0,0E0,0E0,0E0,0E0,0E0,0E0,0E0,0E0],"parents":[2147483647,0,0,1,1,4,4,5,5,6,6,7,7,8,8,9,9,10,10,11,11,12,12,13,13,15,15,16,16,17,17,18,18],"right_children":[2,4,-1,-1,6,8,10,12,14,16,18,20,22,24,-1,26,28,30,32,-1,-1,-1,-1,-1,-1,-1,-1,-1,-1,-1,-1,-1,-1],"split_conditions":[2E-1,8.5449E4,2.1388247E0,-3.4074935E-1,4.236714E1,4.149198E0,8.197042E0,4.6242237E-2,6.801164E0,4.964221E1,3.6208518E-3,4.151399E-2,1.6945134E-1,1.553574E0,1.6070606E-1,1.104199E3,8E1,9.6748E6,5.9720535E-2,2.3410465E-1,-2.5060868E-1,5.9496522E-2,7.081227E-1,3.9458103E-2,-3.1497377E-1,-2.2805883E-1,7.1075134E-2,-2.7991316E-1,9.938211E-2,-2.708753E-1,1.2136967E-1,-3.30361E-1,-1.6552451E-1],"split_indices":[451,443,0,0,413,429,429,66,428,413,298,16,372,434,0,439,401,443,69,0,0,0,0,0,0,0,0,0,0,0,0,0,0],"split_type":[0,0,0,0,0,0,0,0,0,0,0,0,0,0,0,0,0,0,0,0,0,0,0,0,0,0,0,0,0,0,0,0,0],"sum_hessian":[3.801012E4,3.800433E4,5.7917695E0,3.5940562E4,2.0637656E3,5.0335743E1,2.0134298E3,3.5171837E1,1.5163906E1,3.010667E2,1.712363E3,7.2660384E0,2.79058E1,1.3689637E1,1.4742687E0,7.5819534E1,2.252472E2,5.7075256E1,1.6552878E3,1.1583539E0,6.1076846E0,8.845612E0,1.9060188E1,1.4742687E0,1.2215369E1,2.8642935E1,4.7176598E1,2.1661218E2,8.635002E0,5.539038E1,1.6848785E0,1.6474952E3,7.792563E0],"tree_param":{"num_deleted":"0","num_feature":"453","num_nodes":"33","size_leaf_vector":"1"}},{"base_weights":[-1.0854441E0,-1.0868338E0,5.219471E-1,-3.289772E-1,-9.22824E-1,1.0601174E-1,-9.8315626E-1,4.9070963E-1,-9.0491974E-1,-6.532341E-1,-1.042916E0,-2.2815818E-1,9.272477E-1,5.233093E-4,-3.1589797E-1,-2.1976538E-1,-7.9092973E-1,-2.1543097E-1,-1.0457631E0,5.585171E-1,-1.16612315E-1,4.1310066E-1,-8.028879E-2,-2.3952693E-1,4.273887E-1,-2.1990496E-1,2.1027422E-2,-2.540825E-1,6.698957E-2,4.1452032E-1,-2.6019624E-1,-3.1477052E-1,-1.5539624E-1],"categories":[],"categories_nodes":[],"categories_segments":[],"categories_sizes":[],"default_left":[0,0,0,0,0,0,0,0,0,0,0,0,0,0,0,0,0,0,0,0,0,0,0,0,0,0,0,0,0,0,0,0,0],"id":1,"left_children":[1,3,-1,-1,5,7,9,11,13,15,17,19,21,23,-1,25,27,29,31,-1,-1,-1,-1,-1,-1,-1,-1,-1,-1,-1,-1,-1,-1],"loss_changes":[1.1605859E2,4.5496094E1,0E0,0E0,1.0178491E2,3.6084076E1,2.9828735E1,2.1246471E1,3.434452E0,1.415033E1,2.8574219E0,9.490375E0,2.288675E1,6.3705344E0,0E0,8.864612E0,1.0513977E1,7.181175E0,1.8453369E0,0E0,0E0,0E0,0E0,0E0,0E0,0E0,0E0,0E0,0E0,0E0,0E0,0E0,0E0],"parents":[2147483647,0,0,1,1,4,4,5,5,6,6,7,7,8,8,9,9,10,10,11,11,12,12,13,13,15,15,16,16,17,17,18,18],"right_children":[2,4,-1,-1,6,8,10,12,14,16,18,20,22,24,-1,26,28,30,32,-1,-1,-1,-1,-1,-1,-1,-1,-1,-1,-1,-1,-1,-1],"split_conditions":[2E-1,8.5449E4,5.219471E-1,-3.289772E-1,4.448128E1,1.7032558E1,7.683731E0,6E1,1.8269354E-2,4.964221E1,9.939739E-2,1.1544136E-1,5.0763603E-2,1.0248439E-1,-3.1589797E-1,1.1312402E3,8E1,4.317445E1,1.5908779E3,5.585171E-1,-1.16612315E-1,4.1310066E-1,-8.028879E-2,-2.3952693E-1,4.273887E-1,-2.1990496E-1,2.1027422E-2,-2.540825E-1,6.698957E-2,4.1452032E-1,-2.6019624E-1,-3.1477052E-1,-1.5539624E-1],"split_indices":[451,443,0,0,413,429,429,401,392,413,356,354,192,304,0,439,401,429,439,0,0,0,0,0,0,0,0,0,0,0,0,0,0],"split_type":[0,0,0,0,0,0,0,0,0,0,0,0,0,0,0,0,0,0,0,0,0,0,0,0,0,0,0,0,0,0,0,0,0],"sum_hessian":[2.9074758E4,2.9061078E4,1.3680224E1,2.7423967E4,1.6371104E3,9.06424E1,1.5464679E3,6.603005E1,2.461235E1,2.3898863E2,1.3074792E3,2.5127975E1,4.0902077E1,3.59936E0,2.101299E1,5.8240936E1,1.807477E2,4.7461658E0,1.3027332E3,1.0367393E0,2.4091236E1,2.960592E1,1.1296156E1,2.587232E0,1.0121279E0,2.0468447E1,3.7772488E1,1.7144443E2,9.303261E0,1.0511669E0,3.6949987E0,1.293238E3,9.495053E0],"tree_param":{"num_deleted":"0","num_feature":"453","num_nodes":"33","size_leaf_vector":"1"}},{"base_weights":[-1.0555868E0,-1.0570247E0,4.2026758E-1,-3.208469E-1,-8.5738355E-1,-3.439719E-1,-9.9425614E-1,2.47101E-1,-6.401296E-1,-7.820415E-1,-1.0183648E0,-2.909925E-1,5.532718E-1,-4.072164E-3,-7.106314E-1,7.7546185E-1,-8.456103E-1,-8.7213755E-1,-1.0359846E0,2.2591378E-1,-1.9662355E-1,-1.5034851E-1,2.3791447E-1,-2.3683375E-1,2.3618597E-1,-2.1931633E-1,2.4661961E-1,-1.13199376E-1,4.8542398E-1,-2.7386042E-1,9.884842E-2,-2.9094243E-1,-1.0183591E-1,-3.1251168E-1,-1.7464545E-1],"categories":[],"categories_nodes":[],"categories_segments":[],"categories_sizes":[],"default_left":[0,0,0,0,0,0,0,0,0,0,0,0,0,0,0,0,0,0,0,0,0,0,0,0,0,0,0,0,0,0,0,0,0,0,0],"id":2,"left_children":[1,3,-1,-1,5,7,9,11,13,15,17,19,21,23,25,27,29,31,33,-1,-1,-1,-1,-1,-1,-1,-1,-1,-1,-1,-1,-1,-1,-1,-1],"loss_changes":[7.941016E1,5.3953125E1,0E0,0E0,9.1068115E1,4.835383E1,4.455261E0,1.5420767E1,8.234756E0,1.1450264E1,1.4628906E0,1.3522851E1,1.5410177E1,1.2638835E1,5.777252E0,5.270178E0,8.617546E0,5.138489E0,1.5079956E0,0E0,0E0,0E0,0E0,0E0,0E0,0E0,0E0,0E0,0E0,0E0,0E0,0E0,0E0,0E0,0E0],"parents":[2147483647,0,0,1,1,4,4,5,5,6,6,7,7,8,8,9,9,10,10,11,11,12,12,13,13,14,14,15,15,16,16,17,17,18,18],"right_children":[2,4,-1,-1,6,8,10,12,14,16,18,20,22,24,26,28,30,32,34,-1,-1,-1,-1,-1,-1,-1,-1,-1,-1,-1,-1,-1,-1,-1,-1],"split_conditions":[2E-1,8.5449E4,4.2026758E-1,-3.208469E-1,8.197042E0,4.694403E1,4.317445E1,2.366956E0,3.941112E-2,2.0295969E-1,-1.765502E0,6.4648E-3,1.959239E6,5.1932182E-2,5.680202E-2,9.663877E-2,5.2247565E-2,6.5E1,9.804335E-2,2.2591378E-1,-1.9662355E-1,-1.5034851E-1,2.3791447E-1,-2.3683375E-1,2.3618597E-1,-2.1931633E-1,2.4661961E-1,-1.13199376E-1,4.8542398E-1,-2.7386042E-1,9.884842E-2,-2.9094243E-1,-1.0183591E-1,-3.1251168E-1,-1.7464545E-1],"split_indices":[451,443,0,0,429,413,429,435,0,101,421,287,400,22,396,302,60,401,7,0,0,0,0,0,0,0,0,0,0,0,0,0,0,0,0],"split_type":[0,0,0,0,0,0,0,0,0,0,0,0,0,0,0,0,0,0,0,0,0,0,0,0,0,0,0,0,0,0,0,0,0,0,0],"sum_hessian":[2.2060469E4,2.204813E4,1.2336596E1,2.0748326E4,1.2998047E3,2.7432382E2,1.0254808E3,9.162462E1,1.826992E2,1.0802604E2,9.1745483E2,3.324547E1,5.837915E1,1.8335604E1,1.643636E2,3.7969909E0,1.0422905E2,1.0409218E2,8.133626E2,8.32589E0,2.4919577E1,1.0613858E1,4.7765293E1,9.2038145E0,9.131789E0,1.6271841E2,1.645182E0,1.8365638E0,1.9604272E0,9.879749E1,5.431562E0,8.727013E1,1.6822048E1,8.019578E2,1.140478E1],"tree_param":{"num_deleted":"0","num_feature":"453","num_nodes":"35","size_leaf_vector":"1"}},{"base_weights":[-1.0327475E0,-3.1511617E-1,-7.700917E-1,-2.536265E-1,-9.381212E-1,8.085136E-2,-6.407991E-1,-9.53935E-1,3.3938542E-1,-1.5475485E-2,1.0920432E0,-7.5221324E-1,2.883585E-1,-1.0017526E0,-7.890655E-1,-7.346994E-2,1.8390638E0,-1.2365594E-2,2.0053957E0,-8.126743E-1,-1.1334819E-1,-1.7965177E-1,6.6767836E-1,-1.0033114E0,-9.862878E-3,-8.4927666E-1,-2.692197E-1,-1.3106392E-1,5.1104456E-2,7.691577E-1,-3.677337E-2,-2.7974895E-1,3.2768375E-1,-1.279537E-1,8.0226964E-1,-2.5698394E-1,1.2463431E-1,4.692293E-1,-1.8357007E-1,-1.7819344E-1,6.4797723E-1,-3.0190006E-1,-1.0922658E-1,-1.474273E-1,-2.8515947E-1,-1.857263E-1,2.5779104E-1],"categories":[],"categories_nodes":[],"categories_segments":[],"categories_sizes":[],"default_left":[0,0,0,0,0,0,0,0,0,0,0,0,0,0,0,0,0,0,0,0,0,0,0,0,0,0,0,0,0,0,0,0,0,0,0,0,0,0,0,0,0,0,0,0,0,0,0],"id":3,"left_children":[1,-1,3,5,7,9,11,13,-1,15,17,19,21,23,25,27,29,31,33,35,37,39,-1,41,-1,43,45,-1,-1,-1,-1,-1,-1,-1,-1,-1,-1,-1,-1,-1,-1,-1,-1,-1,-1,-1,-1],"loss_changes":[7.636914E1,0E0,9.106085E1,3.3673874E1,2.704425E1,1.3671244E1,1.2685768E1,5.4214478E0,0E0,1.4006757E1,1.2337457E1,4.0729103E0,1.2747624E1,8.838501E-1,5.46373E0,1.1241033E1,5.9294405E0,7.644702E0,1.2017591E1,5.662712E0,9.725189E0,1.2812849E1,0E0,8.045044E-1,0E0,5.4216995E0,8.5636215E0,0E0,0E0,0E0,0E0,0E0,0E0,0E0,0E0,0E0,0E0,0E0,0E0,0E0,0E0,0E0,0E0,0E0,0E0,0E0,0E0],"parents":[2147483647,0,0,2,2,3,3,4,4,5,5,6,6,7,7,9,9,10,10,11,11,12,12,13,13,14,14,15,15,16,16,17,17,18,18,19,19,20,20,21,21,23,23,25,25,26,26],"right_children":[2,-1,4,6,8,10,12,14,-1,16,18,20,22,24,26,28,30,32,34,36,38,40,-1,42,-1,44,46,-1,-1,-1,-1,-1,-1,-1,-1,-1,-1,-1,-1,-1,-1,-1,-1,-1,-1,-1,-1],"split_conditions":[8.5449E4,-3.1511617E-1,8.655678E0,5.069698E1,2E-1,4.653588E-2,7.5E1,4.1643664E-2,3.3938542E-1,3.308423E-2,4.076122E-2,5.1750347E-2,6.0412936E-2,1.7117597E-3,2.813878E0,5.4160133E-2,4.0544875E-2,5.92319E-2,1.898682E6,7.807563E-2,5.0899368E-2,6.224605E-2,6.6767836E-1,6.8270005E-2,-9.862878E-3,2.333965E1,6.5E1,-1.3106392E-1,5.1104456E-2,7.691577E-1,-3.677337E-2,-2.7974895E-1,3.2768375E-1,-1.279537E-1,8.0226964E-1,-2.5698394E-1,1.2463431E-1,4.692293E-1,-1.8357007E-1,-1.7819344E-1,6.4797723E-1,-3.0190006E-1,-1.0922658E-1,-1.474273E-1,-2.8515947E-1,-1.857263E-1,2.5779104E-1],"split_indices":[443,0,429,413,451,377,401,71,0,299,190,51,198,163,433,14,19,54,400,186,3,178,0,63,0,409,401,0,0,0,0,0,0,0,0,0,0,0,0,0,0,0,0,0,0,0,0],"split_type":[0,0,0,0,0,0,0,0,0,0,0,0,0,0,0,0,0,0,0,0,0,0,0,0,0,0,0,0,0,0,0,0,0,0,0,0,0,0,0,0,0,0,0,0,0,0,0],"sum_hessian":[1.6656695E4,1.5605641E4,1.0510552E3,2.5862857E2,7.924266E2,1.3918124E2,1.1944731E2,7.869519E2,5.474636E0,1.2797496E2,1.1206288E1,1.06828125E2,1.2619192E1,6.0608984E2,1.8086212E2,1.250256E2,2.9493697E0,5.5191255E0,5.687163E0,9.734363E1,9.484491E0,1.0894492E1,1.7246999E0,6.050808E2,1.0090216E0,1.6152031E2,1.934181E1,4.9883152E1,7.514244E1,1.9294661E0,1.0199034E0,3.0960572E0,2.4230683E0,1.3048822E0,4.382281E0,9.42733E1,3.0703323E0,1.6833502E0,7.801141E0,9.889273E0,1.0052199E0,6.016619E2,3.4188564E0,3.6913803E1,1.2460651E2,1.5109072E1,4.232739E0],"tree_param":{"num_deleted":"0","num_feature":"453","num_nodes":"47","size_leaf_vector":"1"}},{"base_weights":[-1.0138927E0,-3.1101847E-1,-6.9997704E-1,-2.327751E-1,-9.14783E-1,-5.34347E-1,1.19437456E-1,-9.2871267E-1,2.9388547E-1,-7.745279E-1,-2.9043835E-1,-1.5909304E-1,4.8542845E-1,-9.8265535E-1,-7.21593E-1,-8.1862605E-1,2.956505E-1,-6.810323E-1,5.3001672E-2,9.454774E-1,-3.0946648E-1,1.4175986E0,1.8625285E-1,-6.915081E-3,-9.8471636E-1,-2.8448464E-2,-7.863474E-1,9.086095E-2,-2.5642252E-1,-2.4242146E-1,2.7129066E-1,-2.4275918E-1,9.862727E-2,7.4004865E-1,1.3460505E-2,6.378179E-2,-1.6911717E-1,-8.2287885E-2,5.7015324E-1,1.9942299E-1,-1.2026754E-1,-1.836579E-2,-2.9603055E-1,2.104954E-1,-2.60801E-1,-2.6014617E-1,-1.2589051E-1],"categories":[],"categories_nodes":[],"categories_segments":[],"categories_sizes":[],"default_left":[0,0,0,0,0,0,0,0,0,0,0,0,0,0,0,0,0,0,0,0,0,0,0,0,0,0,0,0,0,0,0,0,0,0,0,0,0,0,0,0,0,0,0,0,0,0,0],"id":4,"left_children":[1,-1,3,5,7,9,11,13,-1,15,17,19,21,23,25,27,-1,29,31,33,35,37,39,-1,41,43,45,-1,-1,-1,-1,-1,-1,-1,-1,-1,-1,-1,-1,-1,-1,-1,-1,-1,-1,-1,-1],"loss_changes":[8.918457E1,0E0,8.545349E1,2.876327E1,1.6331451E1,8.313095E0,1.2865622E1,5.778473E0,0E0,6.4596634E0,9.950955E0,1.2250025E1,1.4924035E1,8.829346E-1,5.5318146E0,3.1589012E0,0E0,7.710001E0,9.837482E0,1.2046335E1,8.630842E0,1.1208761E1,1.2172755E1,0E0,8.0548096E-1,7.7378607E0,2.9886093E0,0E0,0E0,0E0,0E0,0E0,0E0,0E0,0E0,0E0,0E0,0E0,0E0,0E0,0E0,0E0,0E0,0E0,0E0,0E0,0E0],"parents":[2147483647,0,0,2,2,3,3,4,4,5,5,6,6,7,7,9,9,10,10,11,11,12,12,13,13,14,14,15,15,17,17,18,18,19,19,20,20,21,21,22,22,24,24,25,25,26,26],"right_children":[2,-1,4,6,8,10,12,14,-1,16,18,20,22,24,26,28,-1,30,32,34,36,38,40,-1,42,44,46,-1,-1,-1,-1,-1,-1,-1,-1,-1,-1,-1,-1,-1,-1,-1,-1,-1,-1,-1,-1],"split_conditions":[8.5449E4,-3.1101847E-1,2.0188631E1,4.882762E-2,2E-1,6E1,1.2823971E-2,4.8584014E-2,2.9388547E-1,9.726832E6,1.1633594E3,9.691261E-2,1.7807017E-1,4.8195853E0,4.317445E1,3.9221412E-1,2.956505E-1,6.411404E-2,3.7871808E-2,6.2357474E-2,4.451272E-2,2.9813895E-2,4.4673674E-2,-6.915081E-3,3.5902694E-2,2.9949447E-2,6.5E1,9.086095E-2,-2.5642252E-1,-2.4242146E-1,2.7129066E-1,-2.4275918E-1,9.862727E-2,7.4004865E-1,1.3460505E-2,6.378179E-2,-1.6911717E-1,-8.2287885E-2,5.7015324E-1,1.9942299E-1,-1.2026754E-1,-1.836579E-2,-2.9603055E-1,2.104954E-1,-2.60801E-1,-2.6014617E-1,-1.2589051E-1],"split_indices":[443,0,429,63,451,401,294,68,0,400,439,79,352,424,429,425,0,182,56,9,186,392,6,0,181,389,401,0,0,0,0,0,0,0,0,0,0,0,0,0,0,0,0,0,0,0,0],"split_type":[0,0,0,0,0,0,0,0,0,0,0,0,0,0,0,0,0,0,0,0,0,0,0,0,0,0,0,0,0,0,0,0,0,0,0,0,0,0,0,0,0,0,0,0,0,0,0],"sum_hessian":[1.2541647E4,1.1689037E4,8.5261035E2,2.6919534E2,5.83415E2,1.4474472E2,1.2445062E2,5.796625E2,3.752532E0,7.183354E1,7.291118E1,7.099019E1,5.346043E1,4.5691745E2,1.2274499E2,7.0599525E1,1.2340157E0,3.365379E1,3.925739E1,7.87281E0,6.3117382E1,1.2080792E1,4.1379635E1,1.0053664E0,4.559121E2,1.0610224E1,1.12134766E2,1.9721563E0,6.862737E1,3.1610962E1,2.0428302E0,9.044309E0,3.021308E1,2.28084E0,5.59197E0,2.0725357E1,4.2392025E1,2.778448E0,9.302344E0,2.2726574E1,1.8653063E1,1.0792097E0,4.548329E2,5.767866E0,4.8423576E0,9.076883E1,2.1365936E1],"tree_param":{"num_deleted":"0","num_feature":"453","num_nodes":"47","size_leaf_vector":"1"}},{"base_weights":[-9.971548E-1,-3.0805743E-1,-6.277842E-1,-2.1425451E-1,-8.920265E-1,-5.349016E-1,2.5381392E-2,-9.064255E-1,2.6461002E-1,-6.6634005E-1,2.8283147E-2,-3.9342052E-1,1.9805546E-1,-9.616099E-1,-6.8260545E-1,3.457259E-2,-7.6671296E-1,-4.8259118E-1,7.9434246E-1,1.0647843E0,-4.838716E-1,-1.1353737E-1,6.25379E-1,-7.1998334E-1,-9.8377174E-1,2.9073724E-1,-7.1290165E-1,2.8871876E-1,-1.9572984E-1,-2.3889561E-1,2.2119786E-1,2.4787973E-1,-1.9459763E-1,5.247767E-1,-1.8780012E-1,5.0528884E-1,-2.5239507E-2,3.2121965E-1,-1.66549E-1,2.9460907E-1,-7.61597E-2,3.2643154E-2,3.654969E-1,-2.9491463E-1,-5.6229044E-2,-4.4894654E-2,-2.9697433E-1,-1.4706604E-1,-2.6150322E-1],"categories":[],"categories_nodes":[],"categories_segments":[],"categories_sizes":[],"default_left":[0,0,0,0,0,0,0,0,0,0,0,0,0,0,0,0,0,0,0,0,0,0,0,0,0,0,0,0,0,0,0,0,0,0,0,0,0,0,0,0,0,0,0,0,0,0,0,0,0],"id":5,"left_children":[1,-1,3,5,7,9,11,13,-1,15,17,19,21,23,25,27,29,31,33,35,37,39,41,43,45,-1,47,-1,-1,-1,-1,-1,-1,-1,-1,-1,-1,-1,-1,-1,-1,-1,-1,-1,-1,-1,-1,-1,-1],"loss_changes":[1.0286426E2,0E0,7.682059E1,2.122751E1,1.1775726E1,8.7631645E0,1.1573048E1,4.614197E0,0E0,6.767441E0,9.5066395E0,6.6800733E0,1.5145851E1,1.1116638E0,5.086899E0,8.888385E0,4.3211327E0,3.710986E0,1.4257261E1,2.3071563E0,5.5483093E0,1.0445366E1,1.4537697E1,4.3385334E0,1.4330139E0,0E0,2.643093E0,0E0,0E0,0E0,0E0,0E0,0E0,0E0,0E0,0E0,0E0,0E0,0E0,0E0,0E0,0E0,0E0,0E0,0E0,0E0,0E0,0E0,0E0],"parents":[2147483647,0,0,2,2,3,3,4,4,5,5,6,6,7,7,9,9,10,10,11,11,12,12,13,13,14,14,15,15,16,16,17,17,18,18,19,19,20,20,21,21,22,22,23,23,24,24,26,26],"right_children":[2,-1,4,6,8,10,12,14,-1,16,18,20,22,24,26,28,30,32,34,36,38,40,42,44,46,-1,48,-1,-1,-1,-1,-1,-1,-1,-1,-1,-1,-1,-1,-1,-1,-1,-1,-1,-1,-1,-1,-1,-1],"split_conditions":[8.5449E4,-3.0805743E-1,3.558041E1,4.652469E-2,2E-1,7E1,5.5E1,4.930067E-2,2.6461002E-1,4.6616465E-2,1.7425293E-2,3.584732E-2,4.984505E0,4.265392E-2,2.18255E5,4.5631047E-2,2E-1,4.6948195E-2,2.2942735E-2,2.8055945E-1,8.642664E-3,1.6033495E1,2.1911047E1,1.17611155E-1,4.063516E-2,2.9073724E-1,-7.2068316E-1,2.8871876E-1,-1.9572984E-1,-2.3889561E-1,2.2119786E-1,2.4787973E-1,-1.9459763E-1,5.247767E-1,-1.8780012E-1,5.0528884E-1,-2.5239507E-2,3.2121965E-1,-1.66549E-1,2.9460907E-1,-7.61597E-2,3.2643154E-2,3.654969E-1,-2.9491463E-1,-5.6229044E-2,-4.4894654E-2,-2.9697433E-1,-1.4706604E-1,-2.6150322E-1],"split_indices":[443,0,429,63,451,401,401,68,0,181,290,17,420,176,400,61,451,14,296,108,398,409,418,315,184,0,421,0,0,0,0,0,0,0,0,0,0,0,0,0,0,0,0,0,0,0,0,0,0],"split_type":[0,0,0,0,0,0,0,0,0,0,0,0,0,0,0,0,0,0,0,0,0,0,0,0,0,0,0,0,0,0,0,0,0,0,0,0,0,0,0,0,0,0,0,0,0,0,0,0,0],"sum_hessian":[9.433262E3,8.729491E3,7.0377094E2,2.7508444E2,4.2868652E2,1.1712802E2,1.5795642E2,4.2572028E2,2.9662595E0,9.4816246E1,2.2311775E1,4.57402E1,1.1221622E2,3.3887253E2,8.684772E1,1.1959263E1,8.285698E1,1.3607293E1,8.704481E0,2.042363E0,4.3697838E1,6.532054E1,4.689567E1,3.1283396E1,3.0758914E2,1.0061271E0,8.584159E1,4.9173565E0,7.041907E0,8.171896E1,1.1380188E0,1.0844836E0,1.252281E1,5.0665846E0,3.6378968E0,1.0241432E0,1.0182198E0,1.3013467E0,4.2396492E1,6.7356954E0,5.858485E1,2.56944E1,2.1201271E1,2.037355E1,1.0909843E1,2.434013E0,3.0515512E2,3.74316E1,4.8409996E1],"tree_param":{"num_deleted":"0","num_feature":"453","num_nodes":"49","size_leaf_vector":"1"}},{"base_weights":[-9.8101526E-1,-3.059001E-1,-5.538799E-1,-1.7140777E-1,-8.489344E-1,4.1170016E-2,-4.7163722E-1,-8.636203E-1,2.422781E-1,3.9370716E-1,-1.3058959E-1,-6.1165595E-1,4.171535E-1,-9.3331E-1,-6.0358685E-1,-1.410138E-1,8.5759634E-1,5.8606845E-1,-2.7333775E-1,6.999006E-1,-6.6247845E-1,-4.0216088E-1,1.2231668E0,-6.504527E-1,-9.617307E-1,-2.5797293E-1,-7.7763486E-1,-1.3399194E-1,3.8828376E-1,-1.2393646E-1,3.6677596E-1,5.230605E-1,-6.690147E-3,1.05824664E-1,-1.325335E-1,-2.1473534E-1,7.232582E-1,-5.635104E-2,-2.2435917E-1,2.3817001E-1,-2.8067055E-1,-2.0310077E-1,5.389282E-1,-2.8828588E-1,-4.3226782E-2,-3.6616556E-2,-2.9090458E-1,1.779949E-1,-1.8142885E-1,2.7030817E-1,-2.5074354E-1],"categories":[],"categories_nodes":[],"categories_segments":[],"categories_sizes":[],"default_left":[0,0,0,0,0,0,0,0,0,0,0,0,0,0,0,0,0,0,0,0,0,0,0,0,0,0,0,0,0,0,0,0,0,0,0,0,0,0,0,0,0,0,0,0,0,0,0,0,0,0,0],"id":6,"left_children":[1,-1,3,5,7,9,11,13,-1,15,17,19,21,23,25,27,29,31,33,35,37,39,41,43,45,47,49,-1,-1,-1,-1,-1,-1,-1,-1,-1,-1,-1,-1,-1,-1,-1,-1,-1,-1,-1,-1,-1,-1,-1,-1],"loss_changes":[1.1659326E2,0E0,6.6555756E1,1.652718E1,8.808456E0,9.276528E0,1.3608543E1,5.43425E0,0E0,1.2563015E1,1.0716889E1,6.669628E0,1.0528359E1,1.4579773E0,4.177479E0,1.117597E1,1.3027563E1,1.2332447E1,9.302618E0,1.1316082E1,3.5128365E0,6.0312815E0,9.831002E0,4.067893E0,1.440094E0,7.996996E0,5.431856E0,0E0,0E0,0E0,0E0,0E0,0E0,0E0,0E0,0E0,0E0,0E0,0E0,0E0,0E0,0E0,0E0,0E0,0E0,0E0,0E0,0E0,0E0,0E0,0E0],"parents":[2147483647,0,0,2,2,3,3,4,4,5,5,6,6,7,7,9,9,10,10,11,11,12,12,13,13,14,14,15,15,16,16,17,17,18,18,19,19,20,20,21,21,22,22,23,23,24,24,25,25,26,26],"right_children":[2,-1,4,6,8,10,12,14,-1,16,18,20,22,24,26,28,30,32,34,36,38,40,42,44,46,48,50,-1,-1,-1,-1,-1,-1,-1,-1,-1,-1,-1,-1,-1,-1,-1,-1,-1,-1,-1,-1,-1,-1,-1,-1],"split_conditions":[8.5449E4,-3.059001E-1,3.558041E1,5.069698E1,2E-1,1.0480793E-3,7.5E1,4.930067E-2,2.422781E-1,1.331228E0,3.4823317E-2,1.776641E1,3.186005E0,4.265392E-2,2.6014881E-2,5.6160998E-2,3.319021E1,5.0175436E-2,5.6390297E-3,4.8120264E-2,4.6616465E-2,5.267495E1,2.8517662E-2,1.17611155E-1,4.063516E-2,-1.920063E0,9.89216E-2,-1.3399194E-1,3.8828376E-1,-1.2393646E-1,3.6677596E-1,5.230605E-1,-6.690147E-3,1.05824664E-1,-1.325335E-1,-2.1473534E-1,7.232582E-1,-5.635104E-2,-2.2435917E-1,2.3817001E-1,-2.8067055E-1,-2.0310077E-1,5.389282E-1,-2.8828588E-1,-4.3226782E-2,-3.6616556E-2,-2.9090458E-1,1.779949E-1,-1.8142885E-1,2.7030817E-1,-2.5074354E-1],"split_indices":[443,0,429,413,451,429,401,68,0,434,182,409,420,176,280,183,415,19,292,64,181,413,380,315,184,421,318,0,0,0,0,0,0,0,0,0,0,0,0,0,0,0,0,0,0,0,0,0,0,0,0],"split_type":[0,0,0,0,0,0,0,0,0,0,0,0,0,0,0,0,0,0,0,0,0,0,0,0,0,0,0,0,0,0,0,0,0,0,0,0,0,0,0,0,0,0,0,0,0,0,0,0,0,0,0],"sum_hessian":[7.095423E3,6.505362E3,5.900608E2,2.576527E2,3.3240808E2,1.513512E2,1.0630151E2,3.299615E2,2.4466E0,4.9159325E1,1.0219187E2,9.2103485E1,1.419803E1,2.5817944E2,7.1782036E1,2.3159544E1,2.5999783E1,1.6458319E1,8.573355E1,2.9594178E0,8.9144066E1,7.289394E0,6.908637E0,2.5753567E1,2.3242589E2,2.4872976E1,4.690906E1,1.9661674E1,3.4978685E0,5.7721386E0,2.0227644E1,5.027402E0,1.1430916E1,1.794363E1,6.7789925E1,1.9377385E0,1.0216793E0,1.4079371E1,7.506469E1,2.0975957E0,5.191798E0,1.5592546E0,5.349382E0,1.5407802E1,1.0345765E1,2.333651E0,2.3009224E2,6.9938364E0,1.787914E1,1.0859808E0,4.5823082E1],"tree_param":{"num_deleted":"0","num_feature":"453","num_nodes":"51","size_leaf_vector":"1"}},{"base_weights":[-9.642726E-1,-3.0431697E-1,-4.817957E-1,-1.4708671E-1,-8.1076723E-1,-5.802203E-2,-7.04327E-1,-8.2480884E-1,2.157063E-1,2.6708266E-1,-2.545962E-1,1.0822953E-1,-8.270644E-1,-4.4860274E-1,-8.840735E-1,9.187463E-2,9.6634406E-1,-5.1361364E-1,5.0440535E-2,-2.2517437E-1,3.1996608E-1,-9.826744E-1,-6.1295453E-2,-7.0915705E-1,4.666916E-1,-9.049634E-1,2.0219983E-1,2.137661E-1,-3.7993677E-2,3.7361214E-1,-2.3399079E-1,-2.0678395E-1,-2.7489718E-2,3.2799798E-1,-2.1570817E-2,-6.5665888E-3,-3.06732E-1,-2.4330159E-1,3.9965856E-1,-2.654619E-1,-2.9966393E-2,4.8725155E-1,-2.4450022E-1,-2.7532554E-1,2.4775645E-2,4.398386E-1,-1.5115945E-1],"categories":[],"categories_nodes":[],"categories_segments":[],"categories_sizes":[],"default_left":[0,0,0,0,0,0,0,0,0,0,0,0,0,0,0,0,0,0,0,0,0,0,0,0,0,0,0,0,0,0,0,0,0,0,0,0,0,0,0,0,0,0,0,0,0,0,0],"id":7,"left_children":[1,-1,3,5,7,9,11,13,-1,15,17,19,21,23,25,27,29,31,33,-1,-1,35,37,39,41,43,45,-1,-1,-1,-1,-1,-1,-1,-1,-1,-1,-1,-1,-1,-1,-1,-1,-1,-1,-1,-1],"loss_changes":[1.2876318E2,0E0,5.547505E1,1.244063E1,6.0579834E0,1.3994775E1,3.5369053E0,5.234482E0,0E0,1.0031466E1,1.0796416E1,5.261668E0,3.5320587E0,9.012286E0,5.110794E0,9.198949E0,8.984697E0,5.408184E0,8.181727E0,0E0,0E0,9.32333E-1,7.513662E0,2.9876928E0,1.418504E1,2.768921E0,5.124711E0,0E0,0E0,0E0,0E0,0E0,0E0,0E0,0E0,0E0,0E0,0E0,0E0,0E0,0E0,0E0,0E0,0E0,0E0,0E0,0E0],"parents":[2147483647,0,0,2,2,3,3,4,4,5,5,6,6,7,7,9,9,10,10,11,11,12,12,13,13,14,14,15,15,16,16,17,17,18,18,21,21,22,22,23,23,24,24,25,25,26,26],"right_children":[2,-1,4,6,8,10,12,14,-1,16,18,20,22,24,26,28,30,32,34,-1,-1,36,38,40,42,44,46,-1,-1,-1,-1,-1,-1,-1,-1,-1,-1,-1,-1,-1,-1,-1,-1,-1,-1,-1,-1],"split_conditions":[8.5449E4,-3.0431697E-1,4.317445E1,3.189568E1,2E-1,4.324538E-2,3.322317E-5,-1.765502E0,2.157063E-1,2.2948755E-2,1.10837795E-1,3.7096724E-2,5.425394E-2,6.5E1,9.804335E-2,2.4744285E-2,2.4618087E-2,5.7682477E-2,2.4162975E1,-2.2517437E-1,3.1996608E-1,2.2063063E-2,1.1367673E-1,6.0265504E-2,1.0955331E-1,1.565719E3,5.6895044E-2,2.137661E-1,-3.7993677E-2,3.7361214E-1,-2.3399079E-1,-2.0678395E-1,-2.7489718E-2,3.2799798E-1,-2.1570817E-2,-6.5665888E-3,-3.06732E-1,-2.4330159E-1,3.9965856E-1,-2.654619E-1,-2.9966393E-2,4.8725155E-1,-2.4450022E-1,-2.7532554E-1,2.4775645E-2,4.398386E-1,-1.5115945E-1],"split_indices":[443,0,429,409,451,187,429,421,0,298,318,390,10,401,7,376,279,20,411,0,0,386,323,23,302,439,196,0,0,0,0,0,0,0,0,0,0,0,0,0,0,0,0,0,0,0,0],"split_type":[0,0,0,0,0,0,0,0,0,0,0,0,0,0,0,0,0,0,0,0,0,0,0,0,0,0,0,0,0,0,0,0,0,0,0,0,0,0,0,0,0,0,0,0,0,0,0],"sum_hessian":[5.344305E3,4.840406E3,5.038992E2,2.504888E2,2.534104E2,2.1692192E2,3.3566883E1,2.515622E2,1.8482077E0,8.160333E1,1.3531857E2,4.42045E0,2.9146433E1,3.5402164E1,2.1616002E2,6.615806E1,1.544528E1,7.28096E1,6.250898E1,2.44559E0,1.9748602E0,2.398853E1,5.157903E0,2.7732769E1,7.669396E0,2.1224529E2,3.9147303E0,1.6638288E1,4.9519768E1,1.35647335E1,1.8805469E0,5.0961468E1,2.1848135E1,5.729833E0,5.6779144E1,1.0150121E0,2.2973518E1,3.6254077E0,1.5324955E0,2.11738E1,6.55897E0,3.8895679E0,3.7798283E0,2.0960168E2,2.6436007E0,1.0172566E0,2.8974738E0],"tree_param":{"num_deleted":"0","num_feature":"453","num_nodes":"47","size_leaf_vector":"1"}},{"base_weights":[-9.4516134E-1,-3.0314642E-1,-4.1032353E-1,-1.18327744E-1,-7.570088E-1,-4.6992013E-1,2.540015E-2,-9.2764026E-1,-5.410795E-1,-6.376855E-1,8.8377796E-2,9.983013E-2,-7.934087E-1,-2.1541965E-1,-9.608896E-1,-7.0931405E-1,-2.2227286E-1,-7.5686055E-1,-5.487817E-3,6.45925E-1,-4.6187767E-1,-6.800579E-2,4.541773E-1,8.367441E-2,-9.0825325E-1,3.067205E-1,-2.417114E-1,-9.7134197E-1,1.2873542E-3,-8.791681E-1,-4.018463E-1,3.7719825E-1,-6.0175335E-1,-2.5115222E-1,1.8112499E-1,-2.7360678E-1,2.0042305E-1,5.157691E-1,-1.4993826E-1,1.8008043E-1,-2.4346972E-1,2.6569681E-2,-1.7855754E-1,-3.857517E-2,2.5970694E-1,-4.8150453E-3,-2.9405877E-1,-1.3956063E-2,-2.9416043E-1,1.2584487E-1,-2.79047E-1,-2.7946055E-1,3.805875E-2,-1.0974174E-1,3.8992E-1,2.905232E-1,-2.1989846E-1],"categories":[],"categories_nodes":[],"categories_segments":[],"categories_sizes":[],"default_left":[0,0,0,0,0,0,0,0,0,0,0,0,0,0,0,0,0,0,0,0,0,0,0,0,0,0,0,0,0,0,0,0,0,0,0,0,0,0,0,0,0,0,0,0,0,0,0,0,0,0,0,0,0,0,0,0,0],"id":8,"left_children":[1,-1,3,5,7,9,11,13,15,17,19,21,23,25,27,29,31,33,35,37,39,41,43,-1,45,-1,-1,47,-1,49,51,53,55,-1,-1,-1,-1,-1,-1,-1,-1,-1,-1,-1,-1,-1,-1,-1,-1,-1,-1,-1,-1,-1,-1,-1,-1],"loss_changes":[1.4069897E2,0E0,4.4583694E1,1.21769085E1,6.924835E0,6.6038103E0,1.0550948E1,2.4262314E0,4.743181E0,4.054825E0,5.523181E0,9.451075E0,2.030304E0,5.389355E0,1.0730133E0,2.7465496E0,7.738472E0,5.457981E0,6.4419827E0,1.1774294E1,3.8872674E0,8.99664E0,1.2351583E1,0E0,8.359299E-1,0E0,0E0,8.4549713E-1,0E0,2.8661747E0,6.549148E0,9.670246E0,4.955937E0,0E0,0E0,0E0,0E0,0E0,0E0,0E0,0E0,0E0,0E0,0E0,0E0,0E0,0E0,0E0,0E0,0E0,0E0,0E0,0E0,0E0,0E0,0E0,0E0],"parents":[2147483647,0,0,2,2,3,3,4,4,5,5,6,6,7,7,8,8,9,9,10,10,11,11,12,12,13,13,14,14,15,15,16,16,17,17,18,18,19,19,20,20,21,21,22,22,24,24,27,27,29,29,30,30,31,31,32,32],"right_children":[2,-1,4,6,8,10,12,14,16,18,20,22,24,26,28,30,32,34,36,38,40,42,44,-1,46,-1,-1,48,-1,50,52,54,56,-1,-1,-1,-1,-1,-1,-1,-1,-1,-1,-1,-1,-1,-1,-1,-1,-1,-1,-1,-1,-1,-1,-1,-1],"split_conditions":[8.5449E4,-3.0314642E-1,4.317445E1,5.5E1,4.17989E-2,1.999225E0,3.277595E1,4.197188E-2,6E1,1.525758E3,5.5388935E-2,1.406479E3,5.013659E-8,3.7709504E-2,3.777041E0,5.483625E-2,5.1078693E1,6.6054165E-2,4.182972E-2,5.3469934E-2,1.016382E-1,6.1045088E-2,6.952203E0,8.367441E-2,2.8638095E-2,3.067205E-1,-2.417114E-1,9.5790975E-2,1.2873542E-3,-3.250422E2,7.922431E-3,4.4221032E-2,2.2176065E-2,-2.5115222E-1,1.8112499E-1,-2.7360678E-1,2.0042305E-1,5.157691E-1,-1.4993826E-1,1.8008043E-1,-2.4346972E-1,2.6569681E-2,-1.7855754E-1,-3.857517E-2,2.5970694E-1,-4.8150453E-3,-2.9405877E-1,-1.3956063E-2,-2.9416043E-1,1.2584487E-1,-2.79047E-1,-2.7946055E-1,3.805875E-2,-1.0974174E-1,3.8992E-1,2.905232E-1,-2.1989846E-1],"split_indices":[443,0,429,401,68,433,410,176,401,439,196,439,429,0,433,21,413,183,193,63,308,186,423,0,60,0,0,309,0,438,283,176,55,0,0,0,0,0,0,0,0,0,0,0,0,0,0,0,0,0,0,0,0,0,0,0,0],"split_type":[0,0,0,0,0,0,0,0,0,0,0,0,0,0,0,0,0,0,0,0,0,0,0,0,0,0,0,0,0,0,0,0,0,0,0,0,0,0,0,0,0,0,0,0,0,0,0,0,0,0,0,0,0,0,0,0,0],"sum_hessian":[4.0378281E3,3.5975264E3,4.4030176E2,2.3973021E2,2.0057153E2,6.890436E1,1.7082585E2,1.101963E2,9.037524E1,5.2873867E1,1.6030493E1,1.5739655E2,1.3429315E1,5.248537E0,1.0494776E2,5.835589E1,3.2019352E1,4.432164E1,8.552226E0,7.8761287E0,8.154364E0,1.0735576E2,5.0040783E1,1.1609256E0,1.2268389E1,1.4583484E0,3.7901886E0,1.038171E2,1.1306621E0,3.639233E1,2.1963558E1,1.2414302E1,1.960505E1,4.2214527E1,2.1071122E0,3.494729E0,5.057497E0,3.808124E0,4.0680046E0,1.842216E0,6.312147E0,8.341419E1,2.3941563E1,2.0995562E1,2.9045221E1,1.0067071E0,1.12616825E1,1.0814385E0,1.02735664E2,1.1018497E0,3.5290478E1,1.059101E1,1.1372548E1,7.210493E0,5.203809E0,1.0202316E0,1.8584818E1],"tree_param":{"num_deleted":"0","num_feature":"453","num_nodes":"57","size_leaf_vector":"1"}},{"base_weights":[-9.225884E-1,-3.0227268E-1,-3.4552112E-1,-9.861945E-2,-6.9348645E-1,-1.3767144E-1,3.500991E-1,-8.463815E-1,-3.8526416E-1,-7.1721636E-2,-7.356081E-1,-8.7214804E-1,1.0249936E-1,-3.5982937E-2,-6.7517436E-1,-2.1396811E-1,2.2567931E-1,2.4161819E-1,-8.576076E-1,-8.8960856E-1,1.1154465E-1,-1.9335608E-1,3.219338E-1,-4.0793878E-1,1.1290082E0,-2.4517103E-1,-9.0930504E-1,-1.8054868E-1,-1.7913137E-2,-2.1035478E-1,1.15684666E-1,-2.9049528E-1,7.208953E-2,-1.440123E-1,-2.8208855E-1,-1.8053472E-1,2.2269686E-1,5.807297E-1,-1.736151E-1,-2.5736332E-1,1.95651E-1,-7.694363E-2,-2.7926454E-1],"categories":[],"categories_nodes":[],"categories_segments":[],"categories_sizes":[],"default_left":[0,0,0,0,0,0,0,0,0,0,0,0,0,0,0,0,0,0,0,0,0,0,0,0,0,0,0,0,0,0,0,0,0,0,0,0,0,0,0,0,0,0,0],"id":9,"left_children":[1,-1,3,5,7,9,-1,11,13,15,17,19,21,23,25,27,29,-1,31,33,-1,-1,-1,35,37,39,41,-1,-1,-1,-1,-1,-1,-1,-1,-1,-1,-1,-1,-1,-1,-1,-1],"loss_changes":[1.500581E2,0E0,3.388494E1,1.1644E1,7.396179E0,8.8703E0,0E0,2.7469559E0,5.66341E0,8.716812E0,4.896371E0,2.6315536E0,3.4239945E0,1.195767E1,2.8614979E0,8.28797E0,1.0170418E1,0E0,2.8111696E0,1.7233124E0,0E0,0E0,0E0,5.0947204E0,1.0332365E1,7.250499E0,3.5461426E-2,0E0,0E0,0E0,0E0,0E0,0E0,0E0,0E0,0E0,0E0,0E0,0E0,0E0,0E0,0E0,0E0],"parents":[2147483647,0,0,2,2,3,3,4,4,5,5,7,7,8,8,9,9,10,10,11,11,12,12,13,13,14,14,15,15,16,16,18,18,19,19,23,23,24,24,25,25,26,26],"right_children":[2,-1,4,6,8,10,-1,12,14,16,18,20,22,24,26,28,30,-1,32,34,-1,-1,-1,36,38,40,42,-1,-1,-1,-1,-1,-1,-1,-1,-1,-1,-1,-1,-1,-1,-1,-1],"split_conditions":[8.5449E4,-3.0227268E-1,4.317445E1,2E-1,4.6150673E-2,6.307508E-2,3.500991E-1,9.78374E-2,2.5321612E-1,5.411365E0,2.267699E2,1.577298E3,5.537745E-2,2.4355274E-1,6.633525E-1,1.0701506E3,2.379435E0,2.4161819E-1,6.3568994E-2,1.4450871E0,1.1154465E-1,-1.9335608E-1,3.219338E-1,7E1,9.760993E1,3.2501975E-1,2.3299629E-2,-1.8054868E-1,-1.7913137E-2,-2.1035478E-1,1.15684666E-1,-2.9049528E-1,7.208953E-2,-1.440123E-1,-2.8208855E-1,-1.8053472E-1,2.2269686E-1,5.807297E-1,-1.736151E-1,-2.5736332E-1,1.95651E-1,-7.694363E-2,-2.7926454E-1],"split_indices":[443,0,429,451,66,192,0,186,243,420,439,439,23,230,425,439,430,0,6,430,0,0,0,401,429,118,281,0,0,0,0,0,0,0,0,0,0,0,0,0,0,0,0],"split_type":[0,0,0,0,0,0,0,0,0,0,0,0,0,0,0,0,0,0,0,0,0,0,0,0,0,0,0,0,0,0,0,0,0,0,0,0,0,0,0,0,0,0,0],"sum_hessian":[3.0658123E3,2.6716074E3,3.9420493E2,2.313395E2,1.6286543E2,2.2527946E2,6.0600224E0,1.0769623E2,5.516921E1,2.0390913E2,2.1370337E1,1.0492781E2,2.7684119E0,2.553227E1,2.9636936E1,1.3812477E2,6.5784355E1,1.15681E0,2.0213528E1,1.03756325E2,1.1714875E0,1.7542459E0,1.014166E0,1.9845787E1,5.6864843E0,1.1169761E1,1.8467176E1,3.8477257E1,9.9647514E1,9.182989E0,5.6601368E1,1.8469177E1,1.7443496E0,1.2579525E1,9.11768E1,1.7391737E1,2.4540489E0,3.7713175E0,1.915167E0,6.6637287E0,4.5060325E0,1.0031351E0,1.746404E1],"tree_param":{"num_deleted":"0","num_feature":"453","num_nodes":"43","size_leaf_vector":"1"}},{"base_weights":[-8.956716E-1,-3.0161133E-1,-2.8562233E-1,-8.696886E-2,-6.4786905E-1,-1.1835442E-1,3.1551945E-1,-8.913708E-1,-3.9232796E-1,-4.5297784E-1,3.1680707E-3,-9.210656E-1,1.4490248E-1,-7.48908E-1,-1.8505089E-1,-3.713951E-2,-6.2898034E-1,1.033861E-1,-4.7991025E-1,-9.547182E-1,-3.7145745E-2,-8.625462E-1,1.6048977E-1,-7.820198E-1,1.1017776E-1,1.05617955E-1,-2.2558777E-1,2.2920851E-1,-2.223632E-1,-1.6036065E-2,1.3549793E-1,8.76089E-3,-2.2852711E-1,-2.911573E-1,-1.9282369E-3,1.8626624E-1,-1.741713E-1,-2.75232E-1,2.3611361E-2,-1.775334E-1,2.934434E-1,1.6982138E-1,-2.79218E-1,-5.444364E-2,4.1786245E-1],"categories":[],"categories_nodes":[],"categories_segments":[],"categories_sizes":[],"default_left":[0,0,0,0,0,0,0,0,0,0,0,0,0,0,0,0,0,0,0,0,0,0,0,0,0,0,0,0,0,0,0,0,0,0,0,0,0,0,0,0,0,0,0,0,0],"id":10,"left_children":[1,-1,3,5,7,9,-1,11,13,15,17,19,-1,21,23,25,27,29,31,33,35,37,39,41,43,-1,-1,-1,-1,-1,-1,-1,-1,-1,-1,-1,-1,-1,-1,-1,-1,-1,-1,-1,-1],"loss_changes":[1.5638025E2,0E0,2.5720503E1,8.433509E0,7.5347443E0,9.238579E0,0E0,3.0608063E0,4.5630617E0,4.406308E0,8.165225E0,1.8410797E0,0E0,2.5211E0,7.410142E0,5.5677752E0,7.2047977E0,7.6524577E0,4.180453E0,9.0405273E-1,1.5598958E0,1.139266E0,2.67274E0,3.308281E0,1.0982844E1,0E0,0E0,0E0,0E0,0E0,0E0,0E0,0E0,0E0,0E0,0E0,0E0,0E0,0E0,0E0,0E0,0E0,0E0,0E0,0E0],"parents":[2147483647,0,0,2,2,3,3,4,4,5,5,7,7,8,8,9,9,10,10,11,11,13,13,14,14,15,15,16,16,17,17,18,18,19,19,20,20,21,21,22,22,23,23,24,24],"right_children":[2,-1,4,6,8,10,-1,12,14,16,18,20,-1,22,24,26,28,30,32,34,36,38,40,42,44,-1,-1,-1,-1,-1,-1,-1,-1,-1,-1,-1,-1,-1,-1,-1,-1,-1,-1,-1,-1],"split_conditions":[8.5449E4,-3.0161133E-1,5.96179E1,2E-1,4.17989E-2,5.5E1,3.1551945E-1,7.9540804E-2,5.1310245E-2,5.2360952E-2,3.0276608E-1,1.2360214E-1,1.4490248E-1,5.3297814E-2,9.351301E-2,5.0294776E-2,3.071602E-2,1.6579332E-2,1.9873811E-2,2.8732617E-3,2.237423E0,5.1868714E-2,1.346178E1,5.037203E-2,7.556365E-2,1.05617955E-1,-2.2558777E-1,2.2920851E-1,-2.223632E-1,-1.6036065E-2,1.3549793E-1,8.76089E-3,-2.2852711E-1,-2.911573E-1,-1.9282369E-3,1.8626624E-1,-1.741713E-1,-2.75232E-1,2.3611361E-2,-1.775334E-1,2.934434E-1,1.6982138E-1,-2.79218E-1,-5.444364E-2,4.1786245E-1],"split_indices":[443,0,429,451,68,401,0,14,20,12,124,323,0,193,306,176,5,284,287,343,435,280,408,21,12,0,0,0,0,0,0,0,0,0,0,0,0,0,0,0,0,0,0,0,0],"split_type":[0,0,0,0,0,0,0,0,0,0,0,0,0,0,0,0,0,0,0,0,0,0,0,0,0,0,0,0,0,0,0,0,0,0,0,0,0,0,0,0,0,0,0,0,0],"sum_hessian":[2.3400388E3,1.9828358E3,3.5720303E2,2.3149368E2,1.2570935E2,2.261563E2,5.3373966E0,6.309695E1,6.26124E1,5.952398E1,1.6663231E2,6.208536E1,1.0115864E0,2.2056091E1,4.055631E1,1.8061466E1,4.1462513E1,1.3865361E2,2.7978693E1,5.9731186E1,2.354177E0,1.965191E1,2.4041798E0,1.2874495E1,2.7681814E1,1.2022846E1,6.0386195E0,2.6584158E0,3.88041E1,9.61848E1,4.246882E1,1.0289203E1,1.768949E1,5.8728844E1,1.0023398E0,1.0003318E0,1.3538454E0,1.859287E1,1.05904E0,1.3960346E0,1.0081452E0,1.000242E0,1.1874253E1,2.3253098E1,4.428716E0],"tree_param":{"num_deleted":"0","num_feature":"453","num_nodes":"45","size_leaf_vector":"1"}},{"base_weights":[-8.630034E-1,-3.010996E-1,-2.3266138E-1,-6.902539E-2,-5.760407E-1,-5.332199E-1,-5.0722808E-3,-8.286895E-1,-3.0051044E-1,7.171488E-2,-8.071375E-1,-4.8437748E-2,6.4586365E-1,-8.7816346E-1,2.976087E-1,-5.487152E-1,8.836928E-2,-7.424514E-1,1.4717066E0,2.9241396E-2,-9.043897E-1,1.24459244E-1,-2.6725894E-1,1.6662377E0,-1.3954903E-1,5.677524E-2,-9.1197217E-1,2.9818437E-1,-1.5729398E-1,-7.9548776E-1,-7.9017736E-2,5.387227E-1,-1.0855541E-1,-1.6753213E-2,-2.566043E-1,8.6053693E-1,-1.7854495E-1,-1.6668161E-2,-2.9219678E-1,6.55908E-2,-1.9001517E-1,1.1157761E-1,-1.1780614E-1,6.6820043E-1,-5.0983768E-2,-2.6105514E-1,2.0172198E-1,-1.5493833E-2,-2.804933E-1,1.4512847E-1,-2.6533705E-1,3.625629E-1,-1.730437E-1,2.1139467E-1,-1.3380718E-1],"categories":[],"categories_nodes":[],"categories_segments":[],"categories_sizes":[],"default_left":[0,0,0,0,0,0,0,0,0,0,0,0,0,0,0,0,0,0,0,0,0,0,0,0,0,0,0,0,0,0,0,0,0,0,0,0,0,0,0,0,0,0,0,0,0,0,0,0,0,0,0,0,0,0,0],"id":11,"left_children":[1,-1,3,5,7,9,11,13,15,17,19,21,23,25,27,29,31,33,35,-1,37,39,41,43,45,-1,47,-1,-1,49,51,-1,53,-1,-1,-1,-1,-1,-1,-1,-1,-1,-1,-1,-1,-1,-1,-1,-1,-1,-1,-1,-1,-1,-1],"loss_changes":[1.5944214E2,0E0,1.8494541E1,6.6629243E0,7.152336E0,4.5614953E0,5.6304417E0,3.3202515E0,5.108858E0,1.1794994E1,1.7411613E0,7.1041574E0,1.0217161E1,2.0794258E0,2.2706347E0,3.6625051E0,7.3520217E0,4.6395493E-1,1.2642382E1,0E0,9.5392704E-1,7.638546E0,6.7850404E0,6.0410557E0,5.3089013E0,0E0,9.687996E-1,0E0,0E0,2.8134174E0,8.504023E0,0E0,5.8106966E0,0E0,0E0,0E0,0E0,0E0,0E0,0E0,0E0,0E0,0E0,0E0,0E0,0E0,0E0,0E0,0E0,0E0,0E0,0E0,0E0,0E0,0E0],"parents":[2147483647,0,0,2,2,3,3,4,4,5,5,6,6,7,7,8,8,9,9,10,10,11,11,12,12,13,13,14,14,15,15,16,16,17,17,18,18,20,20,21,21,22,22,23,23,24,24,26,26,29,29,30,30,32,32],"right_children":[2,-1,4,6,8,10,12,14,16,18,20,22,24,26,28,30,32,34,36,-1,38,40,42,44,46,-1,48,-1,-1,50,52,-1,54,-1,-1,-1,-1,-1,-1,-1,-1,-1,-1,-1,-1,-1,-1,-1,-1,-1,-1,-1,-1,-1,-1],"split_conditions":[8.5449E4,-3.010996E-1,5.96179E1,4.032374E-2,3.3054056E0,5.965365E0,2.4700908E-2,2.813878E0,3.529571E-2,2.1352226E-2,2.4691E1,5.123578E1,1.4699301E-1,4.588796E-3,5.486265E-2,6.988695E-2,4.23E0,4.931111E-2,1.1321196E-1,2.9241396E-2,3.9536823E-2,3.797986E1,1.7639332E0,2.722781E-2,1.6517343E-1,5.677524E-2,1.1555015E0,2.9818437E-1,-1.5729398E-1,4.063853E-2,1.6157299E1,5.387227E-1,4.7812813E1,-1.6753213E-2,-2.566043E-1,8.6053693E-1,-1.7854495E-1,-1.6668161E-2,-2.9219678E-1,6.55908E-2,-1.9001517E-1,1.1157761E-1,-1.1780614E-1,6.6820043E-1,-5.0983768E-2,-2.6105514E-1,2.0172198E-1,-1.5493833E-2,-2.804933E-1,1.4512847E-1,-2.6533705E-1,3.625629E-1,-1.730437E-1,2.1139467E-1,-1.3380718E-1],"split_indices":[443,0,429,67,428,423,283,433,50,275,412,440,79,292,10,197,404,20,300,0,6,412,417,278,79,0,430,0,0,57,423,0,413,0,0,0,0,0,0,0,0,0,0,0,0,0,0,0,0,0,0,0,0,0,0],"split_type":[0,0,0,0,0,0,0,0,0,0,0,0,0,0,0,0,0,0,0,0,0,0,0,0,0,0,0,0,0,0,0,0,0,0,0,0,0,0,0,0,0,0,0,0,0,0,0,0,0,0,0,0,0,0,0],"sum_hessian":[1.7998844E3,1.4710292E3,3.2885522E2,2.2353265E2,1.0532256E2,2.6178936E1,1.9735373E2,5.389534E1,5.142722E1,8.389435E0,1.7789501E1,1.8589496E2,1.1458768E1,5.183858E1,2.0567596E0,3.1140562E1,2.0286657E1,5.6015334E0,2.7879016E0,1.7266351E0,1.6062866E1,1.0408533E2,8.180962E1,4.4961214E0,6.962647E0,1.4503459E0,5.0388237E1,1.0001376E0,1.056622E0,1.9960154E1,1.11804085E1,1.258273E0,1.9028385E1,1.0020373E0,4.599496E0,1.4322046E0,1.355697E0,1.3535374E0,1.4709328E1,9.321327E1,1.087206E1,1.3097791E1,6.871183E1,3.2806146E0,1.2155069E0,3.6271017E0,3.3355453E0,1.3968188E0,4.8991417E1,1.0093735E0,1.8950779E1,2.7192335E0,8.461175E0,5.261531E0,1.3766854E1],"tree_param":{"num_deleted":"0","num_feature":"453","num_nodes":"55","size_leaf_vector":"1"}},{"base_weights":[-8.2285494E-1,-3.0068958E-1,-1.8698537E-1,-9.065997E-2,-6.6715556E-1,-3.1094247E-1,7.976923E-2,2.0925643E-1,-7.403494E-1,5.483725E-1,-4.0541402E-1,-2.8351432E-2,5.9461695E-1,-1.9993332E-1,3.6224425E-1,-8.498569E-2,-8.2186943E-1,1.2378079E0,-7.158995E-1,-5.823894E-1,-2.6638005E-2,-6.4437944E-1,5.3247586E-2,-9.846059E-2,1.0909094E0,-2.4074538E-1,3.6289704E-1,-8.6443347E-1,1.3373879E-1,6.016531E-1,-7.0426896E-2,-2.5423792E-1,-3.426858E-2,1.4180706E-2,-2.1470632E-1,1.08393416E-1,-1.7358063E-1,-2.898805E-1,2.8655173E-2,-4.047729E-2,1.3486812E-1,4.7833708E-1,-2.0677267E-1,6.450022E-1,7.9618014E-2,-3.434091E-2,-2.7196407E-1],"categories":[],"categories_nodes":[],"categories_segments":[],"categories_sizes":[],"default_left":[0,0,0,0,0,0,0,0,0,0,0,0,0,0,0,0,0,0,0,0,0,0,0,0,0,0,0,0,0,0,0,0,0,0,0,0,0,0,0,0,0,0,0,0,0,0,0],"id":12,"left_children":[1,-1,3,5,7,9,11,13,15,17,19,21,23,-1,-1,25,27,29,31,33,35,37,39,41,43,-1,-1,45,-1,-1,-1,-1,-1,-1,-1,-1,-1,-1,-1,-1,-1,-1,-1,-1,-1,-1,-1],"loss_changes":[1.59612E2,0E0,1.4253065E1,9.745111E0,3.4617882E0,9.407364E0,8.1869755E0,4.959587E0,2.4837437E0,1.1024779E1,6.8562317E0,6.1796117E0,8.88506E0,0E0,0E0,6.9185753E0,2.6728344E0,9.394345E0,2.7825618E-1,5.8939323E0,7.42366E0,3.5160942E0,8.180129E0,1.2666134E1,1.2503033E1,0E0,0E0,1.202446E0,0E0,0E0,0E0,0E0,0E0,0E0,0E0,0E0,0E0,0E0,0E0,0E0,0E0,0E0,0E0,0E0,0E0,0E0,0E0],"parents":[2147483647,0,0,2,2,3,3,4,4,5,5,6,6,7,7,8,8,9,9,10,10,11,11,12,12,15,15,16,16,17,17,18,18,19,19,20,20,21,21,22,22,23,23,24,24,27,27],"right_children":[2,-1,4,6,8,10,12,14,16,18,20,22,24,-1,-1,26,28,30,32,34,36,38,40,42,44,-1,-1,46,-1,-1,-1,-1,-1,-1,-1,-1,-1,-1,-1,-1,-1,-1,-1,-1,-1,-1,-1],"split_conditions":[8.5449E4,-3.0068958E-1,3.189568E1,6E1,3.322317E-5,5.096153E0,1.1224317E-1,1.311937E0,2.4648322E-2,3.0025361E-2,1.999225E0,1.338899E0,4.6645386E1,-1.9993332E-1,3.6224425E-1,2.6433645E-2,8.216003E-2,1.139795E0,5.3489693E-2,3.702733E-2,8.58E0,7.5E1,1.406479E3,1.0706593E-1,2.8248167E-1,-2.4074538E-1,3.6289704E-1,5E0,1.3373879E-1,6.016531E-1,-7.0426896E-2,-2.5423792E-1,-3.426858E-2,1.4180706E-2,-2.1470632E-1,1.08393416E-1,-1.7358063E-1,-2.898805E-1,2.8655173E-2,-4.047729E-2,1.3486812E-1,4.7833708E-1,-2.0677267E-1,6.450022E-1,7.9618014E-2,-3.434091E-2,-2.7196407E-1],"split_indices":[443,0,409,401,429,423,306,434,386,395,433,420,415,0,0,385,185,428,199,182,404,401,439,316,102,0,0,437,0,0,0,0,0,0,0,0,0,0,0,0,0,0,0,0,0,0,0],"split_type":[0,0,0,0,0,0,0,0,0,0,0,0,0,0,0,0,0,0,0,0,0,0,0,0,0,0,0,0,0,0,0,0,0,0,0,0,0,0,0,0,0,0,0,0,0,0,0],"sum_hessian":[1.3994866E3,1.0910217E3,3.084648E2,2.5791425E2,5.055055E1,1.1214306E2,1.457712E2,3.7530606E0,4.679749E1,1.0631756E1,1.0151131E2,1.2125249E2,2.4518711E1,2.176275E0,1.5767857E0,5.403074E0,4.1394417E1,6.893507E0,3.7382483E0,6.881932E1,3.2691986E1,1.3375776E1,1.0787671E2,1.0565495E1,1.3953217E1,3.7210143E0,1.6820595E0,4.0357437E1,1.0369804E0,4.2933216E0,2.6001856E0,2.7322993E0,1.0059491E0,1.21363735E1,5.668295E1,1.9401205E1,1.3290779E1,9.107603E0,4.268174E0,7.359356E1,3.4283146E1,2.2937455E0,8.2717495E0,5.4091253E0,8.544091E0,2.343423E0,3.801401E1],"tree_param":{"num_deleted":"0","num_feature":"453","num_nodes":"47","size_leaf_vector":"1"}},{"base_weights":[-7.7641606E-1,-3.003433E-1,-1.5158184E-1,-6.373721E-1,-6.71962E-2,-7.0134115E-1,3.0696857E-1,-1.263944E-2,-6.0637355E-1,-7.611636E-1,2.6184797E-1,-3.9699674E-2,2.9695824E-1,-7.297043E-1,3.69751E-1,-1.4277625E-1,-8.198231E-1,9.5754296E-2,-2.535148E-1,-2.753604E-1,-1.2464342E-1,3.6482725E-1,-1.6808192E-1,-2.0185354E-1,2.7614763E-1,6.706941E-3,-2.6138633E-1,-1.981185E-1,5.2639116E-2,-1.2542272E-1,4.610529E-2,-2.361596E-1,2.528133E-1],"categories":[],"categories_nodes":[],"categories_segments":[],"categories_sizes":[],"default_left":[0,0,0,0,0,0,0,0,0,0,0,0,0,0,0,0,0,0,0,0,0,0,0,0,0,0,0,0,0,0,0,0,0],"id":13,"left_children":[1,-1,3,5,7,9,-1,11,13,15,-1,17,-1,19,21,23,25,27,29,-1,31,-1,-1,-1,-1,-1,-1,-1,-1,-1,-1,-1,-1],"loss_changes":[1.545354E2,0E0,1.1951177E1,5.304943E0,7.357971E0,4.636059E0,0E0,6.23559E0,3.0371428E0,1.3762016E0,0E0,6.4934974E0,0E0,2.247406E0,3.233382E0,3.311961E0,1.6399746E0,8.401335E0,5.8874173E0,0E0,4.5589914E0,0E0,0E0,0E0,0E0,0E0,0E0,0E0,0E0,0E0,0E0,0E0,0E0],"parents":[2147483647,0,0,2,2,3,3,4,4,5,5,7,7,8,8,9,9,11,11,13,13,14,14,15,15,16,16,17,17,18,18,20,20],"right_children":[2,-1,4,6,8,10,-1,12,14,16,-1,18,-1,20,22,24,26,28,30,-1,32,-1,-1,-1,-1,-1,-1,-1,-1,-1,-1,-1,-1],"split_conditions":[8.5449E4,-3.003433E-1,3.7871808E-2,5.9744287E-2,3.209849E1,1.9489359E1,3.0696857E-1,2E-1,1.2093817E-1,3.118631E2,2.6184797E-1,6.510737E-2,2.9695824E-1,4.9738105E-2,3.768575E-2,2.9342184E-2,4.7045544E-2,4.5E1,2.7738197E0,-2.753604E-1,1.1901164E-1,3.6482725E-1,-1.6808192E-1,-2.0185354E-1,2.7614763E-1,6.706941E-3,-2.6138633E-1,-1.981185E-1,5.2639116E-2,-1.2542272E-1,4.610529E-2,-2.361596E-1,2.528133E-1],"split_indices":[443,0,56,64,410,408,0,451,303,439,0,13,0,51,182,394,13,401,419,0,313,0,0,0,0,0,0,0,0,0,0,0,0],"split_type":[0,0,0,0,0,0,0,0,0,0,0,0,0,0,0,0,0,0,0,0,0,0,0,0,0,0,0,0,0,0,0,0,0],"sum_hessian":[1.1006201E3,8.090385E2,2.9158157E2,4.218402E1,2.4939755E2,4.117553E1,1.0084907E0,2.2741043E2,2.1987125E1,4.01656E1,1.0099313E0,2.223685E2,5.041937E0,1.974486E1,2.242264E0,3.7774775E0,3.6388123E1,1.364673E2,8.59012E1,1.4666761E1,5.0780993E0,1.0129077E0,1.2293562E0,2.7658272E0,1.0116502E0,2.128153E0,3.4259968E1,1.231912E1,1.2414818E2,6.1158558E1,2.474264E1,3.1243927E0,1.9537066E0],"tree_param":{"num_deleted":"0","num_feature":"453","num_nodes":"33","size_leaf_vector":"1"}},{"base_weights":[-7.224906E-1,-3.00029E-1,-1.1887342E-1,-4.1442943E-1,-1.2088758E-2,-1.0326501E-1,-6.980999E-1,3.933087E-2,-6.778612E-1,7.569715E-1,-3.917942E-1,-1.5575221E-1,-9.4121456E-1,7.644722E-4,9.462908E-1,1.5018457E-1,-8.473974E-1,1.3930821E0,-3.7870106E-1,-6.1611545E-1,9.7324634E-1,1.0425751E0,-5.5907094E-1,-6.5781966E-2,-2.8834882E-1,-1.9530673E-1,1.5905873E-1,1.7414297E0,-1.3231683E-1,6.180419E-2,-9.541717E-1,6.2116873E-1,-1.7606539E-1,8.765703E-2,-2.0857766E-1,-2.4085377E-1,8.1284985E-2,-1.8706718E-1,6.3558036E-1,5.8373946E-1,-1.727046E-1,-2.4516498E-1,2.1891454E-1,-1.5422817E-1,1.978699E-2,1.8188836E-1,-3.757262E-3,2.0098245E-1,7.1411216E-1,-2.47981E-1,1.7003496E-1,-8.3816834E-2,-2.9699922E-1],"categories":[],"categories_nodes":[],"categories_segments":[],"categories_sizes":[],"default_left":[0,0,0,0,0,0,0,0,0,0,0,0,0,0,0,0,0,0,0,0,0,0,0,0,0,0,0,0,0,0,0,0,0,0,0,0,0,0,0,0,0,0,0,0,0,0,0,0,0,0,0,0,0],"id":14,"left_children":[1,-1,3,5,7,9,11,13,15,17,19,21,23,25,27,-1,29,31,33,35,37,39,41,-1,-1,43,45,47,49,-1,51,-1,-1,-1,-1,-1,-1,-1,-1,-1,-1,-1,-1,-1,-1,-1,-1,-1,-1,-1,-1,-1,-1],"loss_changes":[1.4691019E2,0E0,8.754578E0,6.4273643E0,7.041606E0,9.303489E0,4.9092445E0,6.685941E0,3.3704338E0,7.358286E0,9.122311E0,6.8980837E0,1.6768265E-1,5.7533536E0,6.9170814E0,0E0,1.6883602E0,9.631655E0,1.0910853E0,4.2785835E0,9.214592E0,6.439734E0,4.0654078E0,0E0,0E0,6.9306564E0,7.878121E0,1.5262299E0,2.5254846E0,0E0,1.8815994E-2,0E0,0E0,0E0,0E0,0E0,0E0,0E0,0E0,0E0,0E0,0E0,0E0,0E0,0E0,0E0,0E0,0E0,0E0,0E0,0E0,0E0,0E0],"parents":[2147483647,0,0,2,2,3,3,4,4,5,5,6,6,7,7,8,8,9,9,10,10,11,11,12,12,13,13,14,14,16,16,17,17,18,18,19,19,20,20,21,21,22,22,25,25,26,26,27,27,28,28,30,30],"right_children":[2,-1,4,6,8,10,12,14,16,18,20,22,24,26,28,-1,30,32,34,36,38,40,42,-1,-1,44,46,48,50,-1,52,-1,-1,-1,-1,-1,-1,-1,-1,-1,-1,-1,-1,-1,-1,-1,-1,-1,-1,-1,-1,-1,-1],"split_conditions":[8.5449E4,-3.00029E-1,3.4900274E-2,4.700494E-2,3.0788472E-1,2.0232522E0,2.5207201E-2,1.6668886E-1,1.05592385E-1,6.725177E1,4.5890514E-2,4.347137E-2,4.4458326E-2,1.3711976E-2,4.0194847E-2,1.5018457E-1,4.0149853E-2,5.3724706E-2,5.3776816E-2,1.36627E3,6.577538E-2,4.939258E-2,3.187768E-2,-6.5781966E-2,-2.8834882E-1,1.264511E3,1.44374985E-2,1.35E2,4.2945225E-2,6.180419E-2,3.6399096E-2,6.2116873E-1,-1.7606539E-1,8.765703E-2,-2.0857766E-1,-2.4085377E-1,8.1284985E-2,-1.8706718E-1,6.3558036E-1,5.8373946E-1,-1.727046E-1,-2.4516498E-1,2.1891454E-1,-1.5422817E-1,1.978699E-2,1.8188836E-1,-3.757262E-3,2.0098245E-1,7.1411216E-1,-2.47981E-1,1.7003496E-1,-8.3816834E-2,-2.9699922E-1],"split_indices":[443,0,50,5,108,435,375,84,321,438,5,187,175,291,395,0,12,61,198,439,8,1,281,0,0,439,297,437,188,0,18,0,0,0,0,0,0,0,0,0,0,0,0,0,0,0,0,0,0,0,0,0,0],"split_type":[0,0,0,0,0,0,0,0,0,0,0,0,0,0,0,0,0,0,0,0,0,0,0,0,0,0,0,0,0,0,0,0,0,0,0,0,0,0,0,0,0,0,0,0,0,0,0,0,0,0,0,0,0],"sum_hessian":[8.764301E2,5.9988403E2,2.7654605E2,7.263306E1,2.0391298E2,3.5288433E1,3.7344624E1,1.9016675E2,1.3746231E1,8.455423E0,2.6833008E1,1.206664E1,2.5277983E1,1.833702E2,6.796556E0,1.4832236E0,1.2263007E1,5.274451E0,3.180973E0,2.351703E1,3.315978E0,2.6394384E0,9.427202E0,1.0021281E0,2.4275854E1,8.180661E1,1.0156358E2,3.5586429E0,3.2379131E0,1.0430528E0,1.12199545E1,3.8957098E0,1.3787411E0,1.0444384E0,2.1365347E0,1.9505909E1,4.011122E0,1.5753171E0,1.740661E0,1.564061E0,1.0753772E0,8.158871E0,1.2683309E0,3.6411034E1,4.5395576E1,2.7458555E1,7.4105034E1,2.0945926E0,1.4640503E0,1.5330433E0,1.7048697E0,1.0092435E0,1.02107115E1],"tree_param":{"num_deleted":"0","num_feature":"453","num_nodes":"53","size_leaf_vector":"1"}},{"base_weights":[-6.60849E-1,-2.9971817E-1,-9.622634E-2,-1.2171749E-1,2.9404265E-1,-1.6322354E-2,-3.9582282E-1,-1.20327644E-1,2.922714E-1,3.0111825E-2,-5.475683E-1,1.3661069E-1,-3.3545285E-1,5.909194E-1,-1.482238E-1,1.8077074E0,-3.1659928E-1,-7.035433E-1,1.07435666E-1,6.631028E-3,5.0158477E-1,2.7487103E-2,-1.6057487E-1,8.7622E-2,5.5214286E-1,-1.930445E-1,1.3057654E-1,-1.6444826E-1,9.723575E-1,9.088421E-2,-2.0382962E-1,-2.4068387E-1,1.8883006E-1,2.9149795E-1,-9.133811E-2],"categories":[],"categories_nodes":[],"categories_segments":[],"categories_sizes":[],"default_left":[0,0,0,0,0,0,0,0,0,0,0,0,0,0,0,0,0,0,0,0,0,0,0,0,0,0,0,0,0,0,0,0,0,0,0],"id":15,"left_children":[1,-1,3,5,-1,7,9,11,13,15,17,19,21,23,25,27,29,31,33,-1,-1,-1,-1,-1,-1,-1,-1,-1,-1,-1,-1,-1,-1,-1,-1],"loss_changes":[1.360604E2,0E0,7.4782867E0,7.58827E0,0E0,6.1629205E0,4.7326136E0,7.977901E0,6.4571605E0,1.2969384E1,5.5773487E0,1.158524E1,6.7385645E0,1.0312539E1,6.164337E0,1.3366971E1,4.1808023E0,6.2468987E0,4.2915525E0,0E0,0E0,0E0,0E0,0E0,0E0,0E0,0E0,0E0,0E0,0E0,0E0,0E0,0E0,0E0,0E0],"parents":[2147483647,0,0,2,2,3,3,5,5,6,6,7,7,8,8,9,9,10,10,11,11,12,12,13,13,14,14,15,15,16,16,17,17,18,18],"right_children":[2,-1,4,6,-1,8,10,12,14,16,18,20,22,24,26,28,30,32,34,-1,-1,-1,-1,-1,-1,-1,-1,-1,-1,-1,-1,-1,-1,-1,-1],"split_conditions":[8.5449E4,-2.9971817E-1,2E-1,2.5609711E-2,2.9404265E-1,1.1320377E-1,4.265392E-2,1.0687129E-1,1.1403279E-1,3.2497488E-2,4.132019E0,1.1387609E-1,6.802934E-1,1.9929172E-1,4.7235124E-2,2.9066429E-2,6.288347E-2,7.875364E-2,2.5985217E-2,6.631028E-3,5.0158477E-1,2.7487103E-2,-1.6057487E-1,8.7622E-2,5.5214286E-1,-1.930445E-1,1.3057654E-1,-1.6444826E-1,9.723575E-1,9.088421E-2,-2.0382962E-1,-2.4068387E-1,1.8883006E-1,2.9149795E-1,-9.133811E-2],"split_indices":[443,0,451,282,0,302,176,304,308,69,430,301,425,356,69,74,13,185,390,0,0,0,0,0,0,0,0,0,0,0,0,0,0,0,0],"split_type":[0,0,0,0,0,0,0,0,0,0,0,0,0,0,0,0,0,0,0,0,0,0,0,0,0,0,0,0,0,0,0,0,0,0,0],"sum_hessian":[7.1200366E2,4.4479816E2,2.672055E2,2.618902E2,5.315309E0,1.8992317E2,7.196704E1,1.4250487E2,4.7418304E1,1.9114916E1,5.2852127E1,6.510755E1,7.739731E1,2.8055609E1,1.9362696E1,2.4320204E0,1.6682896E1,4.2627262E1,1.0224865E1,6.153277E1,3.574786E0,2.4840586E1,5.255672E1,2.3636425E1,4.4191837E0,1.0417483E1,8.945211E0,1.1536498E0,1.2783705E0,6.2226334E0,1.0460262E1,4.00582E1,2.5690606E0,2.8616567E0,7.363209E0],"tree_param":{"num_deleted":"0","num_feature":"453","num_nodes":"35","size_leaf_vector":"1"}},{"base_weights":[-5.94976E-1,-2.993828E-1,-7.368337E-2,-3.4203295E-2,-7.1281064E-1,-7.33397E-1,-1.8855156E-3,-8.5863847E-1,1.0558673E-1,-2.6609132E-1,8.6741135E-2,8.302056E-2,-2.6868168E-1,1.6562318E-2,-2.813549E-1,2.782978E-1,-9.288175E-2,8.105711E-1,-3.550364E-1,4.7869895E-2,3.51112E-1,1.6643482E-1,-6.208472E-2,-1.3958693E-1,5.144641E-1,-2.8149524E-1,-5.3973436E-2],"categories":[],"categories_nodes":[],"categories_segments":[],"categories_sizes":[],"default_left":[0,0,0,0,0,0,0,0,0,0,0,0,0,0,0,0,0,0,0,0,0,0,0,0,0,0,0],"id":16,"left_children":[1,-1,3,5,7,9,11,13,-1,-1,-1,15,17,-1,-1,19,21,23,25,-1,-1,-1,-1,-1,-1,-1,-1],"loss_changes":[1.23172455E2,0E0,6.457367E0,5.489169E0,2.6148725E0,1.9418001E0,5.3060584E0,1.0210972E0,0E0,0E0,0E0,6.129965E0,5.5578213E0,0E0,0E0,8.759541E0,7.0770273E0,5.98281E0,5.2503395E0,0E0,0E0,0E0,0E0,0E0,0E0,0E0,0E0],"parents":[2147483647,0,0,2,2,3,3,4,4,5,5,6,6,7,7,11,11,12,12,15,15,16,16,17,17,18,18],"right_children":[2,-1,4,6,8,10,12,14,-1,-1,-1,16,18,-1,-1,20,22,24,26,-1,-1,-1,-1,-1,-1,-1,-1],"split_conditions":[8.5449E4,-2.993828E-1,6.899492E1,8.860628E-2,8E1,9.835088E-2,1.497918E0,4.5263126E-2,1.0558673E-1,-2.6609132E-1,8.6741135E-2,-1.5397797E1,9.3882516E-2,1.6562318E-2,-2.813549E-1,1.19736284E-1,4.530892E-3,3.41888E-2,3.336962E-2,4.7869895E-2,3.51112E-1,1.6643482E-1,-6.208472E-2,-1.3958693E-1,5.144641E-1,-2.8149524E-1,-5.3973436E-2],"split_indices":[443,0,416,306,401,3,421,195,0,0,0,438,306,0,0,319,287,384,65,0,0,0,0,0,0,0,0],"split_type":[0,0,0,0,0,0,0,0,0,0,0,0,0,0,0,0,0,0,0,0,0,0,0,0,0,0,0],"sum_hessian":[5.857081E2,3.2983026E2,2.5587787E2,2.4198361E2,1.3894261E1,9.7323065E0,2.322513E2,1.2390833E1,1.5034286E0,8.576744E0,1.1555625E0,1.7670497E2,5.5546337E1,1.0125258E0,1.1378307E1,8.346477E1,9.32402E1,3.4938626E0,5.205247E1,7.4701225E1,8.763547E0,1.3383899E1,7.98563E1,1.6505828E0,1.8432798E0,1.1013224E1,4.103925E1],"tree_param":{"num_deleted":"0","num_feature":"453","num_nodes":"27","size_leaf_vector":"1"}},{"base_weights":[-5.239466E-1,-2.9899305E-1,-5.9247687E-2,-5.998117E-1,-1.9280633E-2,-7.703316E-1,3.4476373E-1,-1.741988E-1,1.6105607E-1,8.1041485E-2,-8.732887E-1,2.542741E-1,-7.072636E-2,-7.324584E-2,-5.8353144E-1,6.301627E-1,1.6536843E-2,2.0137422E-2,-2.8563353E-1,-5.23149E-1,4.88222E-2,1.8510829E-1,-7.385753E-1,1.4151416E0,7.308278E-2,-8.2792944E-1,1.1570458E-1,-2.0098315E-1,3.1173944E-1,-9.436604E-2,7.2839804E-2,2.2079347E-1,-1.9663511E-1,-2.5033993E-1,1.723886E-1,-9.051096E-2,5.2675724E-1,1.985782E-1,-1.5886961E-1,2.8428927E-2,-2.8701082E-1,1.05645165E-1,-9.931933E-2],"categories":[],"categories_nodes":[],"categories_segments":[],"categories_sizes":[],"default_left":[0,0,0,0,0,0,0,0,0,0,0,0,0,0,0,0,0,0,0,0,0,0,0,0,0,0,0,0,0,0,0,0,0,0,0,0,0,0,0,0,0,0,0],"id":17,"left_children":[1,-1,3,5,7,9,11,13,15,-1,17,-1,-1,19,21,23,25,-1,-1,27,29,31,33,35,37,39,41,-1,-1,-1,-1,-1,-1,-1,-1,-1,-1,-1,-1,-1,-1,-1,-1],"loss_changes":[1.08803085E2,0E0,5.410631E0,3.0432415E0,6.5857325E0,1.8338957E0,1.1712283E0,5.1946764E0,7.3782034E0,0E0,1.087615E0,0E0,0E0,5.671835E0,3.1077785E0,1.1109208E1,7.159089E0,0E0,0E0,5.747727E0,5.84109E0,2.7903244E0,3.1171703E0,6.7237816E0,6.0468225E0,1.1584125E0,8.182754E0,0E0,0E0,0E0,0E0,0E0,0E0,0E0,0E0,0E0,0E0,0E0,0E0,0E0,0E0,0E0,0E0],"parents":[2147483647,0,0,2,2,3,3,4,4,5,5,6,6,7,7,8,8,10,10,13,13,14,14,15,15,16,16,19,19,20,20,21,21,22,22,23,23,24,24,25,25,26,26],"right_children":[2,-1,4,6,8,10,12,14,16,-1,18,-1,-1,20,22,24,26,-1,-1,28,30,32,34,36,38,40,42,-1,-1,-1,-1,-1,-1,-1,-1,-1,-1,-1,-1,-1,-1,-1,-1],"split_conditions":[8.5449E4,-2.9899305E-1,3.6230493E-2,4.657534E-1,5.141641E-2,3.764743E-3,5.453184E0,5.811591E-2,-2.002085E0,8.1041485E-2,2.6729401E-2,2.542741E-1,-7.072636E-2,4.162185E-2,1.2232194E-2,5.006856E1,6.1449762E-3,2.0137422E-2,-2.8563353E-1,5.6953404E-2,4.565804E-2,1.0535255E-1,2E-1,5.2984025E-2,5.0871894E-2,1.61157E-1,5.4193728E-2,-2.0098315E-1,3.1173944E-1,-9.436604E-2,7.2839804E-2,2.2079347E-1,-1.9663511E-1,-2.5033993E-1,1.723886E-1,-9.051096E-2,5.2675724E-1,1.985782E-1,-1.5886961E-1,2.8428927E-2,-2.8701082E-1,1.05645165E-1,-9.931933E-2],"split_indices":[443,0,52,436,198,292,423,185,421,0,52,0,0,184,282,416,279,0,0,197,51,300,451,23,15,436,188,0,0,0,0,0,0,0,0,0,0,0,0,0,0,0,0],"split_type":[0,0,0,0,0,0,0,0,0,0,0,0,0,0,0,0,0,0,0,0,0,0,0,0,0,0,0,0,0,0,0,0,0,0,0,0,0,0,0,0,0,0,0],"sum_hessian":[4.9458997E2,2.4461757E2,2.4997241E2,1.6245155E1,2.3372725E2,1.3917211E1,2.327944E0,1.2574236E2,1.0798489E2,1.1069303E0,1.281028E1,1.0009389E0,1.3270051E0,1.0181167E2,2.393069E1,2.4640827E1,8.334406E1,1.0021664E0,1.1808114E1,2.1027054E1,8.0784615E1,3.9843106E0,1.994638E1,9.588886E0,1.5051941E1,7.9864445E0,7.535762E1,1.9743128E1,1.2839258E0,2.7899368E1,5.2885246E1,2.4820728E0,1.5022377E0,1.8928747E1,1.0176338E0,1.6068053E0,7.9820814E0,7.563408E0,7.488533E0,1.0104473E0,6.9759974E0,4.9416466E1,2.5941156E1],"tree_param":{"num_deleted":"0","num_feature":"453","num_nodes":"43","size_leaf_vector":"1"}},{"base_weights":[-4.552288E-1,-2.985147E-1,-5.2247945E-2,-1.630616E-2,-5.9255457E-1,-4.5033127E-2,1.5811638E0,-8.0891925E-1,5.3404474E-1,-1.1249231E-2,-7.702293E-1,-2.5621666E-2,6.7543566E-1,-2.7790368E-1,8.666565E-2,4.0278843E-1,-1.5956941E-1,-4.5231238E-2,6.8890387E-1,4.7956612E-2,-2.6725227E-1,-2.5755918E-1,-5.9871194E-3,6.465187E-1,-5.4720584E-3],"categories":[],"categories_nodes":[],"categories_segments":[],"categories_sizes":[],"default_left":[0,0,0,0,0,0,0,0,0,0,0,0,0,0,0,0,0,0,0,0,0,0,0,0,0],"id":18,"left_children":[1,-1,3,5,7,9,11,13,15,17,19,-1,-1,-1,-1,-1,-1,21,23,-1,-1,-1,-1,-1,-1],"loss_changes":[9.284149E1,0E0,4.758943E0,1.0684244E1,4.1584377E0,5.581143E0,4.7869425E0,1.9721031E0,3.3561466E0,5.2420964E0,1.2800012E0,0E0,0E0,0E0,0E0,0E0,0E0,4.295721E0,1.0613981E1,0E0,0E0,0E0,0E0,0E0,0E0],"parents":[2147483647,0,0,2,2,3,3,4,4,5,5,6,6,7,7,8,8,9,9,10,10,17,17,18,18],"right_children":[2,-1,4,6,8,10,12,14,16,18,20,-1,-1,-1,-1,-1,-1,22,24,-1,-1,-1,-1,-1,-1],"split_conditions":[8.5449E4,-2.985147E-1,3.4432114E1,3.3794743E1,5.5164915E-2,3.189568E1,1.1090757E-1,1.8252482E-1,2.285902E0,3.109274E1,1.2374019E-2,-2.5621666E-2,6.7543566E-1,-2.7790368E-1,8.666565E-2,4.0278843E-1,-1.5956941E-1,3.1194597E-2,1.08368665E-1,4.7956612E-2,-2.6725227E-1,-2.5755918E-1,-5.9871194E-3,6.465187E-1,-5.4720584E-3],"split_indices":[443,0,409,409,24,409,305,83,435,409,286,0,0,0,0,0,0,179,323,0,0,0,0,0,0],"split_type":[0,0,0,0,0,0,0,0,0,0,0,0,0,0,0,0,0,0,0,0,0,0,0,0,0],"sum_hessian":[4.2602347E2,1.8146698E2,2.445565E2,2.3026894E2,1.428756E1,2.2715585E2,3.1130867E0,1.2222246E1,2.0653145E0,2.1801495E2,9.140905E0,1.1432226E0,1.969864E0,1.1182317E1,1.0399293E0,1.0268312E0,1.0384834E0,2.0881546E2,9.199484E0,1.0119526E0,8.128953E0,5.2999315E0,2.0351553E2,2.3270767E0,6.872407E0],"tree_param":{"num_deleted":"0","num_feature":"453","num_nodes":"25","size_leaf_vector":"1"}},{"base_weights":[-3.831821E-1,-2.9790637E-1,-4.0142223E-2,-6.039218E-2,2.7192912E-1,-7.6582754E-1,-3.3224545E-2,-2.7277932E-1,5.1623907E-2,3.4222367E-1,-8.3364815E-2,8.454813E-1,-1.7719574E-1,-4.2327785E-1,4.205802E-3,1.701933E-2,4.916152E-1,-1.5254584E-1,2.6207355E-1,2.798729E-1,-1.6304708E-1,-5.991398E-2,4.6907485E-2],"categories":[],"categories_nodes":[],"categories_segments":[],"categories_sizes":[],"default_left":[0,0,0,0,0,0,0,0,0,0,0,0,0,0,0,0,0,0,0,0,0,0,0],"id":19,"left_children":[1,-1,3,5,-1,7,9,-1,-1,11,13,15,17,19,21,-1,-1,-1,-1,-1,-1,-1,-1],"loss_changes":[7.882332E1,0E0,4.699271E0,4.539052E0,0E0,1.3385596E0,4.365478E0,0E0,0E0,7.296027E0,6.0754166E0,8.702822E0,5.4151397E0,7.323074E0,5.0958858E0,0E0,0E0,0E0,0E0,0E0,0E0,0E0,0E0],"parents":[2147483647,0,0,2,2,3,3,5,5,6,6,9,9,10,10,11,11,12,12,13,13,14,14],"right_children":[2,-1,4,6,-1,8,10,-1,-1,12,14,16,18,20,22,-1,-1,-1,-1,-1,-1,-1,-1],"split_conditions":[8.5449E4,-2.9790637E-1,2E-1,8.860628E-2,2.7192912E-1,4.9928613E-3,9.53676E-2,-2.7277932E-1,5.1623907E-2,2.195388E0,3.4900274E-2,1.0730484E-1,2.8894162E-1,4.7631156E-2,4.7739558E-2,1.701933E-2,4.916152E-1,-1.5254584E-1,2.6207355E-1,2.798729E-1,-1.6304708E-1,-5.991398E-2,4.6907485E-2],"split_indices":[443,0,451,306,0,344,306,0,0,435,50,313,121,13,179,0,0,0,0,0,0,0,0],"split_type":[0,0,0,0,0,0,0,0,0,0,0,0,0,0,0,0,0,0,0,0,0,0,0],"sum_hessian":[3.7597662E2,1.346708E2,2.413058E2,2.3716827E2,4.1375237E0,7.7868094E0,2.2938147E2,6.780402E0,1.0064074E0,2.6338036E1,2.0304343E2,1.3058302E1,1.3279734E1,4.080842E1,1.6223502E2,7.0849433E0,5.9733586E0,1.0488866E1,2.7908676E0,2.77227E0,3.8036148E1,6.9190865E1,9.304414E1],"tree_param":{"num_deleted":"0","num_feature":"453","num_nodes":"23","size_leaf_vector":"1"}},{"base_weights":[-3.1817803E-1,-2.9711667E-1,-3.203891E-2,7.16701E-4,-5.5950093E-1,4.1932706E-2,-5.502053E-1,1.5984084E-1,-7.8583753E-1,-4.0623006E-1,9.079619E-2,-8.7762463E-1,4.9786583E-2,9.902384E-2,-2.9062727E-1,3.8455442E-1,-7.070174E-1,1.0412878E0,6.31083E-2,2.8605768E-2,-2.9939103E-1,7.8922313E-1,-5.5601346E-1,2.9277974E-1,-1.9879198E-1,8.423656E-2,-2.8272822E-1,5.218475E-1,-1.7645046E-1,2.498409E-3,1.6688637E-1,3.59966E-1,4.6135837E-4,-2.283709E-1,1.3241478E-2],"categories":[],"categories_nodes":[],"categories_segments":[],"categories_sizes":[],"default_left":[0,0,0,0,0,0,0,0,0,0,0,0,0,0,0,0,0,0,0,0,0,0,0,0,0,0,0,0,0,0,0,0,0,0,0],"id":20,"left_children":[1,-1,3,5,7,9,11,-1,13,15,17,19,21,-1,-1,23,25,27,29,-1,-1,31,33,-1,-1,-1,-1,-1,-1,-1,-1,-1,-1,-1,-1],"loss_changes":[6.505281E1,0E0,4.1189127E0,5.1420355E0,3.8648157E0,4.650412E0,3.1402178E0,0E0,2.7591505E0,5.241808E0,4.9550767E0,1.2955146E0,3.355519E0,0E0,0E0,4.6133986E0,3.866476E0,7.0934167E0,5.0324574E0,0E0,0E0,1.080339E0,5.4666686E-1,0E0,0E0,0E0,0E0,0E0,0E0,0E0,0E0,0E0,0E0,0E0,0E0],"parents":[2147483647,0,0,2,2,3,3,4,4,5,5,6,6,8,8,9,9,10,10,11,11,12,12,15,15,16,16,17,17,18,18,21,21,22,22],"right_children":[2,-1,4,6,8,10,12,-1,14,16,18,20,22,-1,-1,24,26,28,30,-1,-1,32,34,-1,-1,-1,-1,-1,-1,-1,-1,-1,-1,-1,-1],"split_conditions":[8.5449E4,-2.9711667E-1,6.417903E-2,2.1174847E-1,2.101029E1,3.4803808E-2,2.2396445E-1,1.5984084E-1,4.640334E-2,3.1060651E-2,3.5450544E-2,1.0625513E-1,1.11719504E-1,9.902384E-2,-2.9062727E-1,1.9929712E-1,7.0765596E-3,1.1333236E-1,1.6078834E-1,2.8605768E-2,-2.9939103E-1,1.7437401E-1,1.2035736E-1,2.9277974E-1,-1.9879198E-1,8.423656E-2,-2.8272822E-1,5.218475E-1,-1.7645046E-1,2.498409E-3,1.6688637E-1,3.59966E-1,4.6135837E-4,-2.283709E-1,1.3241478E-2],"split_indices":[443,0,10,364,412,72,358,0,14,59,72,303,321,0,0,371,290,322,79,0,0,98,303,0,0,0,0,0,0,0,0,0,0,0,0],"split_type":[0,0,0,0,0,0,0,0,0,0,0,0,0,0,0,0,0,0,0,0,0,0,0,0,0,0,0,0,0,0,0,0,0,0,0],"sum_hessian":[3.3737256E2,9.999608E1,2.3737648E2,2.2443747E2,1.2939018E1,2.0967499E2,1.4762483E1,1.988493E0,1.0950525E1,1.989449E1,1.8978049E2,9.251275E0,5.5112076E0,1.428902E0,9.521624E0,5.405273E0,1.4489217E1,4.335627E0,1.8544487E2,1.0411762E0,8.210099E0,2.3455105E0,3.1656969E0,3.4979432E0,1.9073299E0,2.7513769E0,1.173784E1,2.9878411E0,1.347786E0,1.6782092E2,1.7623941E1,1.1977504E0,1.14776E0,2.1590128E0,1.0066841E0],"tree_param":{"num_deleted":"0","num_feature":"453","num_nodes":"35","size_leaf_vector":"1"}},{"base_weights":[-2.6213732E-1,-2.9608062E-1,-2.8594254E-2,-1.8405485E-1,7.7806294E-2,7.820635E-2,-4.8793596E-1,-1.6127215E-1,2.1413174E-1,-3.225328E-1,4.212796E-1,6.0239553E-1,-5.9882134E-1,5.1609653E-1,-3.609048E-1,3.84337E-1,-1.5366967E-1,8.6801285E-1,-5.5122346E-1,8.9132637E-1,-1.6232443E-1,1.3715599E0,-1.6551204E-1,-6.875422E-1,4.3485966E-1,-5.389919E-1,9.744063E-1,-5.6014246E-1,1.7528608E-1,1.4291092E0,2.2001804E-1,-4.6651772E-1,7.1754974E-1,-8.148286E-2,4.869416E-1,8.32819E-2,-2.4467741E-1,-7.584142E-2,4.3230465E-1,-1.2958246E-1,3.8267663E-1,5.73354E-1,4.6684206E-2,-4.185651E-2,-2.6383886E-1,3.9011902E-1,-1.8213932E-1,-2.1501799E-1,6.2548933E-3,4.9506107E-1,-4.645704E-2,-2.084091E-1,1.3324037E-1,3.8615668E-1,-1.4194278E-1,5.562381E-1,-1.7275737E-1,-4.0056456E-2,2.0502093E-1,-2.0110859E-1,2.2141026E-1,4.5322374E-1,-3.2207077E-5],"categories":[],"categories_nodes":[],"categories_segments":[],"categories_sizes":[],"default_left":[0,0,0,0,0,0,0,0,0,0,0,0,0,0,0,0,0,0,0,0,0,0,0,0,0,0,0,0,0,0,0,0,0,0,0,0,0,0,0,0,0,0,0,0,0,0,0,0,0,0,0,0,0,0,0,0,0,0,0,0,0,0,0],"id":21,"left_children":[1,-1,3,5,7,9,11,13,15,17,19,21,23,25,27,29,31,33,35,37,39,41,-1,43,45,47,49,51,53,55,57,59,61,-1,-1,-1,-1,-1,-1,-1,-1,-1,-1,-1,-1,-1,-1,-1,-1,-1,-1,-1,-1,-1,-1,-1,-1,-1,-1,-1,-1,-1,-1],"loss_changes":[5.2298973E1,0E0,3.8986263E0,7.6661477E0,4.601206E0,7.317527E0,5.7380314E0,7.143854E0,5.6720786E0,7.1925197E0,7.983921E0,4.84381E0,4.0473537E0,6.3876486E0,4.406445E0,1.0257736E1,8.260824E0,4.194608E0,4.893109E0,1.0415904E1,5.82135E0,1.7036586E0,0E0,3.87706E0,4.2557535E0,4.4432962E-1,6.9776154E0,4.313959E0,9.035355E0,8.044424E0,9.002493E0,5.8973336E0,4.598169E0,0E0,0E0,0E0,0E0,0E0,0E0,0E0,0E0,0E0,0E0,0E0,0E0,0E0,0E0,0E0,0E0,0E0,0E0,0E0,0E0,0E0,0E0,0E0,0E0,0E0,0E0,0E0,0E0,0E0,0E0],"parents":[2147483647,0,0,2,2,3,3,4,4,5,5,6,6,7,7,8,8,9,9,10,10,11,11,12,12,13,13,14,14,15,15,16,16,17,17,18,18,19,19,20,20,21,21,23,23,24,24,25,25,26,26,27,27,28,28,29,29,30,30,31,31,32,32],"right_children":[2,-1,4,6,8,10,12,14,16,18,20,22,24,26,28,30,32,34,36,38,40,42,-1,44,46,48,50,52,54,56,58,60,62,-1,-1,-1,-1,-1,-1,-1,-1,-1,-1,-1,-1,-1,-1,-1,-1,-1,-1,-1,-1,-1,-1,-1,-1,-1,-1,-1,-1,-1,-1],"split_conditions":[8.5449E4,-2.9608062E-1,6E1,1.1339669E-1,5.1361382E-2,1.0877474E-1,9.5790975E-2,3.9075844E-2,6.729379E-2,1.3006968E1,4.239264E1,2.140255E0,1.725758E2,1.1094693E-1,1.1757366E-1,1.02023326E-1,2.0909673E-2,1.0627881E-1,1.0125584E-1,5.389737E-2,2.45482E-2,3.9270177E-2,-1.6551204E-1,1.500296E1,4.8319407E-2,4.1988797E-2,2.1041123E-2,5.0433494E-2,1.1070886E-1,6.474139E-2,8.260791E0,1.2749764E-1,9.60741E-3,-8.148286E-2,4.869416E-1,8.32819E-2,-2.4467741E-1,-7.584142E-2,4.3230465E-1,-1.2958246E-1,3.8267663E-1,5.73354E-1,4.6684206E-2,-4.185651E-2,-2.6383886E-1,3.9011902E-1,-1.8213932E-1,-2.1501799E-1,6.2548933E-3,4.9506107E-1,-4.645704E-2,-2.084091E-1,1.3324037E-1,3.8615668E-1,-1.4194278E-1,5.562381E-1,-1.7275737E-1,-4.0056456E-2,2.0502093E-1,-2.0110859E-1,2.2141026E-1,4.5322374E-1,-3.2207077E-5],"split_indices":[443,0,401,310,24,315,309,51,13,418,440,435,440,301,313,312,277,321,317,62,293,386,0,418,175,71,295,399,304,24,423,311,278,0,0,0,0,0,0,0,0,0,0,0,0,0,0,0,0,0,0,0,0,0,0,0,0,0,0,0,0,0,0],"split_type":[0,0,0,0,0,0,0,0,0,0,0,0,0,0,0,0,0,0,0,0,0,0,0,0,0,0,0,0,0,0,0,0,0,0,0,0,0,0,0,0,0,0,0,0,0,0,0,0,0,0,0,0,0,0,0,0,0,0,0,0,0,0,0],"sum_hessian":[3.0813165E2,7.430405E1,2.3382762E2,9.4713295E1,1.3911432E2,5.1236687E1,4.347661E1,5.0451996E1,8.866232E1,2.3659832E1,2.7576855E1,3.6041877E0,3.987242E1,1.1123589E1,3.9328407E1,6.0582134E1,2.8080189E1,3.3619916E0,2.029784E1,1.4982422E1,1.2594433E1,2.0497127E0,1.5544751E0,3.7029076E1,2.843345E0,3.3152988E0,7.80829E0,2.8641235E1,1.0687171E1,7.1872187E0,5.3394917E1,2.1002779E1,7.0774097E0,1.5950631E0,1.7669286E0,4.8965144E0,1.5401326E1,5.0374646E0,9.944958E0,1.1194924E1,1.3995081E0,1.0236616E0,1.0260509E0,1.0052265E1,2.697681E1,1.4177163E0,1.4256287E0,2.3037035E0,1.0115952E0,4.5963416E0,3.2119484E0,2.5529076E1,3.1121614E0,3.5738199E0,7.113351E0,5.9922094E0,1.1950097E0,3.0691044E1,2.2703873E1,1.8342232E1,2.6605482E0,2.8368504E0,4.240559E0],"tree_param":{"num_deleted":"0","num_feature":"453","num_nodes":"63","size_leaf_vector":"1"}},{"base_weights":[-2.1762769E-1,-2.9471612E-1,-2.7689293E-2,-1.7043116E-3,-6.833235E-1,-4.0789762E-1,3.808516E-2,-8.359505E-1,7.037343E-2,1.3079286E-1,-7.624295E-1,2.3299286E-1,-7.813942E-2,-5.2977543E-2,-2.727246E-1,7.3786074E-1,-4.5774662E-1,-8.953927E-1,1.0150992E-1,5.7446665E-1,-1.2479591E-2,9.412309E-2,-3.6551246E-1,-1.6403012E-1,3.751464E-1,-2.508168E-1,1.0581733E-1,-2.8721508E-1,-4.6820298E-2,4.7797263E-2,3.6234683E-1,2.451938E-1,-5.6671027E-2,9.51752E-2,-6.763463E-2,-1.5331738E-1,7.068378E-2],"categories":[],"categories_nodes":[],"categories_segments":[],"categories_sizes":[],"default_left":[0,0,0,0,0,0,0,0,0,0,0,0,0,0,0,0,0,0,0,0,0,0,0,0,0,0,0,0,0,0,0,0,0,0,0,0,0],"id":22,"left_children":[1,-1,3,5,7,9,11,13,-1,15,17,19,21,-1,-1,23,25,27,-1,29,31,33,35,-1,-1,-1,-1,-1,-1,-1,-1,-1,-1,-1,-1,-1,-1],"loss_changes":[4.107612E1,0E0,3.8780994E0,3.5715969E0,1.4118562E0,3.865009E0,4.578446E0,2.0882368E-1,0E0,3.4385595E0,2.0646935E0,6.3316045E0,6.314303E0,0E0,0E0,3.7492268E0,1.8352422E0,3.553505E-1,0E0,8.109964E0,6.723773E0,5.7837152E0,4.2979755E0,0E0,0E0,0E0,0E0,0E0,0E0,0E0,0E0,0E0,0E0,0E0,0E0,0E0,0E0],"parents":[2147483647,0,0,2,2,3,3,4,4,5,5,6,6,7,7,9,9,10,10,11,11,12,12,15,15,16,16,17,17,19,19,20,20,21,21,22,22],"right_children":[2,-1,4,6,8,10,12,14,-1,16,18,20,22,-1,-1,24,26,28,-1,30,32,34,36,-1,-1,-1,-1,-1,-1,-1,-1,-1,-1,-1,-1,-1,-1],"split_conditions":[8.5449E4,-2.9471612E-1,6.445725E-2,2.943001E-2,5.2972786E-2,3.2410406E-2,6.862204E-1,1.3130384E-2,7.037343E-2,1.4863522E-1,1.3303828E-1,4.6201266E-2,5.069698E1,-5.2977543E-2,-2.727246E-1,1.3338701E-1,5.1164776E-2,2.22579E-2,1.0150992E-1,5.170408E1,2.4117369E1,1.1490865E-1,1.1574131E-1,-1.6403012E-1,3.751464E-1,-2.508168E-1,1.0581733E-1,-2.8721508E-1,-4.6820298E-2,4.7797263E-2,3.6234683E-1,2.451938E-1,-5.6671027E-2,9.51752E-2,-6.763463E-2,-1.5331738E-1,7.068378E-2],"split_indices":[443,0,179,177,69,188,425,295,0,96,322,11,413,0,0,91,386,283,0,413,412,311,305,0,0,0,0,0,0,0,0,0,0,0,0,0,0],"split_type":[0,0,0,0,0,0,0,0,0,0,0,0,0,0,0,0,0,0,0,0,0,0,0,0,0,0,0,0,0,0,0,0,0,0,0,0,0],"sum_hessian":[2.8196933E2,5.5268124E1,2.2670119E2,2.1902318E2,7.6780224E0,1.8715313E1,2.0030786E2,6.659907E0,1.0181158E0,7.6788425E0,1.103647E1,7.445042E1,1.2585744E2,1.0058464E0,5.6540604E0,3.65503E0,4.0238123E0,1.0013547E1,1.022924E0,3.0576109E1,4.387431E1,7.910895E1,4.674849E1,1.023521E0,2.631509E0,2.72178E0,1.3020325E0,8.96676E0,1.0467867E0,1.922582E1,1.1350288E1,7.055727E0,3.681858E1,4.6588066E1,3.2520885E1,3.7756622E1,8.991868E0],"tree_param":{"num_deleted":"0","num_feature":"453","num_nodes":"37","size_leaf_vector":"1"}},{"base_weights":[-1.7799924E-1,-2.9292026E-1,-2.755035E-2,2.1261096E-2,-3.97202E-1,-3.5016185E-1,8.824064E-2,-1.6673906E-2,-8.54872E-1,-7.152007E-1,1.6519412E-1,-1.6066104E-1,2.2338441E-1,4.4807777E-1,-2.6082477E-1,-2.7805164E-1,-1.7001176E-2,2.1511666E-1,-8.405477E-1,6.319749E-1,-6.8908876E-1,4.9575213E-2,-6.28094E-1,-2.6760826E-2,4.9015233E-1,-7.7206564E-1,5.248175E-1,-2.9724696E-1,8.950865E-2,-2.0637627E-1,3.008082E-1,-2.5782993E-1,-4.3287254E-3,1.885336E-1,-5.2000586E-2,-2.4045457E-1,1.9453286E-1,-5.2687556E-2,2.2207874E-1,3.2509616E-1,7.152624E-2,1.4287061E-3,-2.619525E-1,3.2878047E-1,-1.8902786E-1],"categories":[],"categories_nodes":[],"categories_segments":[],"categories_sizes":[],"default_left":[0,0,0,0,0,0,0,0,0,0,0,0,0,0,0,0,0,0,0,0,0,0,0,0,0,0,0,0,0,0,0,0,0,0,0,0,0,0,0,0,0,0,0,0,0],"id":23,"left_children":[1,-1,3,5,7,9,11,13,15,17,19,21,23,-1,25,-1,-1,-1,27,29,31,33,35,37,39,41,43,-1,-1,-1,-1,-1,-1,-1,-1,-1,-1,-1,-1,-1,-1,-1,-1,-1,-1],"loss_changes":[3.1936989E1,0E0,4.0670657E0,4.9977393E0,4.564086E0,5.8943343E0,5.7524505E0,6.0584455E0,6.319046E-1,3.8631105E0,5.836006E0,5.9652405E0,7.390944E0,0E0,6.062785E0,0E0,0E0,0E0,3.2325077E0,5.2303267E0,5.925262E-1,5.603068E0,4.683117E0,6.7533317E0,7.7428646E0,7.061696E-1,4.7457256E0,0E0,0E0,0E0,0E0,0E0,0E0,0E0,0E0,0E0,0E0,0E0,0E0,0E0,0E0,0E0,0E0,0E0,0E0],"parents":[2147483647,0,0,2,2,3,3,4,4,5,5,6,6,7,7,8,8,9,9,10,10,11,11,12,12,14,14,18,18,19,19,20,20,21,21,22,22,23,23,24,24,25,25,26,26],"right_children":[2,-1,4,6,8,10,12,14,16,18,20,22,24,-1,26,-1,-1,-1,28,30,32,34,36,38,40,42,44,-1,-1,-1,-1,-1,-1,-1,-1,-1,-1,-1,-1,-1,-1,-1,-1,-1,-1],"split_conditions":[8.5449E4,-2.9292026E-1,9.999999E1,1.664093E6,4.310877E-2,5.5367786E-2,1.0881364E-1,4.0886335E-2,6.6202104E-2,1.422363E1,1.116526E6,1.12509385E-1,5.0399505E-2,4.4807777E-1,3.2915913E-2,-2.7805164E-1,-1.7001176E-2,2.1511666E-1,3.0248795E1,5.789226E-2,5.2739944E-2,5.093945E-2,4.6121106E-2,5.7457447E-2,1.0973884E-1,3.8245694E2,4.9349245E-2,-2.9724696E-1,8.950865E-2,-2.0637627E-1,3.008082E-1,-2.5782993E-1,-4.3287254E-3,1.885336E-1,-5.2000586E-2,-2.4045457E-1,1.9453286E-1,-5.2687556E-2,2.2207874E-1,3.2509616E-1,7.152624E-2,1.4287061E-3,-2.619525E-1,3.2878047E-1,-1.8902786E-1],"split_indices":[443,0,452,400,193,20,312,61,196,407,400,311,194,0,391,0,0,0,407,13,182,2,379,182,315,439,178,0,0,0,0,0,0,0,0,0,0,0,0,0,0,0,0,0,0],"split_type":[0,0,0,0,0,0,0,0,0,0,0,0,0,0,0,0,0,0,0,0,0,0,0,0,0,0,0,0,0,0,0,0,0,0,0,0,0,0,0,0,0,0,0,0,0],"sum_hessian":[2.6510266E2,4.1163963E1,2.2393869E2,1.9865001E2,2.5288685E1,2.9703993E1,1.6894601E2,1.4373949E1,1.0914736E1,1.7160807E1,1.2543187E1,5.9384857E1,1.09561165E2,1.2881601E0,1.3085789E1,9.864208E0,1.0505282E0,1.0011194E0,1.6159687E1,8.279493E0,4.2636933E0,4.1578247E1,1.780661E1,5.7006504E1,5.2554657E1,7.937743E0,5.1480455E0,1.43908825E1,1.7688049E0,1.6279069E0,6.6515865E0,3.1855097E0,1.0781835E0,1.1053762E1,3.0524483E1,1.6004475E1,1.8021362E0,4.8386627E1,8.619876E0,1.466784E1,3.7886818E1,1.0239079E0,6.9138355E0,3.4788008E0,1.6692445E0],"tree_param":{"num_deleted":"0","num_feature":"453","num_nodes":"45","size_leaf_vector":"1"}},{"base_weights":[-1.4807978E-1,-2.9056647E-1,-2.9442303E-2,-9.5702834E-2,2.038564E-1,-4.6964446E-1,-4.1967638E-2,3.4685037E-1,-5.8450687E-1,-5.949515E-1,2.0464532E-1,4.8548624E-1,-8.722036E-2,-1.6383442E-1,6.0718226E-1,1.1947901E-1,-2.706462E-1,-7.3367983E-1,3.9939314E-1,-1.5360445E-1,1.2042798E0,-2.5573513E-2,-6.556227E-1,6.689169E-1,-6.351203E-1,8.985942E-1,-3.3647817E-2,-2.5294796E-1,9.8803274E-2,3.5057846E-1,-1.581302E-1,-1.6791481E-1,1.9691236E-1,-5.6917552E-2,4.9000624E-1,3.41225E-2,-8.659163E-2,-2.3905556E-1,1.16138145E-1,-2.5747415E-2,4.8396015E-1,-2.8627414E-1,1.839734E-1,3.549765E-1,-2.4317938E-3,-1.6211373E-1,3.0521083E-1],"categories":[],"categories_nodes":[],"categories_segments":[],"categories_sizes":[],"default_left":[0,0,0,0,0,0,0,0,0,0,0,0,0,0,0,0,0,0,0,0,0,0,0,0,0,0,0,0,0,0,0,0,0,0,0,0,0,0,0,0,0,0,0,0,0,0,0],"id":24,"left_children":[1,-1,3,5,7,9,11,13,15,17,-1,19,21,23,25,-1,-1,27,29,31,33,35,37,39,41,43,45,-1,-1,-1,-1,-1,-1,-1,-1,-1,-1,-1,-1,-1,-1,-1,-1,-1,-1,-1,-1],"loss_changes":[2.443153E1,0E0,3.4292428E0,3.4457626E0,5.7388372E0,3.5191584E0,3.6678474E0,5.7094145E0,2.829292E0,3.050342E0,0E0,5.7683268E0,4.914766E0,6.3255744E0,5.289275E0,0E0,0E0,2.3601751E0,2.8215365E0,2.7754686E0,3.7991114E0,4.724239E0,2.3304496E0,4.3581505E0,4.6145844E0,5.015359E0,5.751501E0,0E0,0E0,0E0,0E0,0E0,0E0,0E0,0E0,0E0,0E0,0E0,0E0,0E0,0E0,0E0,0E0,0E0,0E0,0E0,0E0],"parents":[2147483647,0,0,2,2,3,3,4,4,5,5,6,6,7,7,8,8,9,9,11,11,12,12,13,13,14,14,17,17,18,18,19,19,20,20,21,21,22,22,23,23,24,24,25,25,26,26],"right_children":[2,-1,4,6,8,10,12,14,16,18,-1,20,22,24,26,-1,-1,28,30,32,34,36,38,40,42,44,46,-1,-1,-1,-1,-1,-1,-1,-1,-1,-1,-1,-1,-1,-1,-1,-1,-1,-1,-1,-1],"split_conditions":[8.5449E4,-2.9056647E-1,1.4746443E3,4.5E1,1.55E2,8.282807E-2,2.3030678E1,1.350984E0,3.684954E1,6.6054165E-2,2.0464532E-1,1.4189256E-2,3.6691115E0,2.5995463E-1,5.223034E-2,1.1947901E-1,-2.706462E-1,6.490026E-2,5.4302163E-2,4.7992118E-2,1.1384832E-1,5.4056454E-2,6.628815E-2,1.019072E-2,2.020069E-2,2.7134165E-1,5.577624E-2,-2.5294796E-1,9.8803274E-2,3.5057846E-1,-1.581302E-1,-1.6791481E-1,1.9691236E-1,-5.6917552E-2,4.9000624E-1,3.41225E-2,-8.659163E-2,-2.3905556E-1,1.16138145E-1,-2.5747415E-2,4.8396015E-1,-2.8627414E-1,1.839734E-1,3.549765E-1,-2.4317938E-3,-1.6211373E-1,3.0521083E-1],"split_indices":[443,0,439,401,437,187,411,434,413,183,0,295,435,108,17,0,0,63,187,51,91,181,195,299,288,240,51,0,0,0,0,0,0,0,0,0,0,0,0,0,0,0,0,0,0,0,0],"split_type":[0,0,0,0,0,0,0,0,0,0,0,0,0,0,0,0,0,0,0,0,0,0,0,0,0,0,0,0,0,0,0,0,0,0,0,0,0,0,0,0,0,0,0,0,0,0,0],"sum_hessian":[2.5028696E2,3.0713564E1,2.195734E2,1.7146452E2,4.8108864E1,2.0571074E1,1.5089345E2,4.1196625E1,6.91224E0,1.8988697E1,1.5823764E0,1.115424E1,1.3973921E2,1.4035095E1,2.7161528E1,1.6264296E0,5.2858105E0,1.6893858E1,2.0948386E0,6.320704E0,4.8335357E0,1.2700925E2,1.2729968E1,4.920804E0,9.114291E0,1.8394537E1,8.766991E0,1.5503947E1,1.389911E0,1.0018036E0,1.093035E0,4.4157076E0,1.904996E0,1.2688944E0,3.564641E0,8.340625E1,4.3602993E1,1.1419182E1,1.3107866E0,3.240148E0,1.6806558E0,7.446342E0,1.6679491E0,1.376726E1,4.627278E0,6.2429185E0,2.5240726E0],"tree_param":{"num_deleted":"0","num_feature":"453","num_nodes":"47","size_leaf_vector":"1"}},{"base_weights":[-1.18449815E-1,-2.8750363E-1,-2.396881E-2,-4.1327212E-2,2.5251326E-1,9.101724E-3,-4.0278542E-1,7.935035E-1,-1.6544698E-2,-6.1959565E-1,2.0758732E-1,-1.878904E-1,1.3453474E0,-2.1989235E-1,7.814679E-2,4.3160772E-1,-7.867533E-1,-3.9582846E-1,9.987779E-1,6.5039223E-1,-9.521028E-3,-1.9416201E-1,-9.111665E-3,4.10925E-2,-1.5184669E-1,-8.7344944E-2,2.7256423E-1,-2.6552856E-1,7.031641E-2,1.2537472E-1,-2.2855653E-1,4.555231E-1,-4.1480575E-2],"categories":[],"categories_nodes":[],"categories_segments":[],"categories_sizes":[],"default_left":[0,0,0,0,0,0,0,0,0,0,0,0,0,0,0,0,0,0,0,0,0,0,0,0,0,0,0,0,0,0,0,0,0],"id":25,"left_children":[1,-1,3,5,-1,7,9,11,13,15,17,-1,19,21,23,25,27,29,31,-1,-1,-1,-1,-1,-1,-1,-1,-1,-1,-1,-1,-1,-1],"loss_changes":[1.8808205E1,0E0,3.2555661E0,3.8511384E0,0E0,3.7591443E0,3.5514507E0,5.4777756E0,3.5080647E0,3.7373104E0,3.989531E0,0E0,5.2546206E0,4.666295E0,4.3465023E0,1.4016199E0,1.9184074E0,1.8038385E0,2.3022554E0,0E0,0E0,0E0,0E0,0E0,0E0,0E0,0E0,0E0,0E0,0E0,0E0,0E0,0E0],"parents":[2147483647,0,0,2,2,3,3,5,5,6,6,7,7,8,8,9,9,10,10,12,12,13,13,14,14,15,15,16,16,17,17,18,18],"right_children":[2,-1,4,6,-1,8,10,12,14,16,18,-1,20,22,24,26,28,30,32,-1,-1,-1,-1,-1,-1,-1,-1,-1,-1,-1,-1,-1,-1],"split_conditions":[8.5449E4,-2.8750363E-1,2E-1,1.6157299E1,2.5251326E-1,1.4450871E0,1.35E2,5.0200737E1,1.107265E3,1.961785E-1,1.1412159E-1,-1.878904E-1,9.999999E1,4.497593E-2,6.065261E-2,1.6739585E-1,6.9413304E-2,3.0528538E-2,5.993965E-1,6.5039223E-1,-9.521028E-3,-1.9416201E-1,-9.111665E-3,4.10925E-2,-1.5184669E-1,-8.7344944E-2,2.7256423E-1,-2.6552856E-1,7.031641E-2,1.2537472E-1,-2.2855653E-1,4.555231E-1,-4.1480575E-2],"split_indices":[443,0,451,423,0,430,437,413,439,241,314,0,452,63,192,374,381,11,425,0,0,0,0,0,0,0,0,0,0,0,0,0,0],"split_type":[0,0,0,0,0,0,0,0,0,0,0,0,0,0,0,0,0,0,0,0,0,0,0,0,0,0,0,0,0,0,0,0,0],"sum_hessian":[2.363054E2,2.2969868E1,2.1333553E2,2.1007541E2,3.2601216E0,1.8521053E2,2.4864878E1,4.915918E0,1.8029462E2,1.8336475E1,6.528402E0,1.33815E0,3.5777676E0,5.6862213E1,1.234324E2,2.2986882E0,1.6037786E1,3.9871986E0,2.5412035E0,1.8802459E0,1.6975217E0,1.6728714E1,4.01335E1,1.1283739E2,1.0595015E1,1.0687076E0,1.2299806E0,1.4750461E1,1.2873262E0,1.1930553E0,2.7941432E0,1.513934E0,1.0272694E0],"tree_param":{"num_deleted":"0","num_feature":"453","num_nodes":"33","size_leaf_vector":"1"}},{"base_weights":[-9.3847506E-2,-2.835589E-1,-1.9206522E-2,7.5559296E-2,-1.8200746E-1,1.4854337E-1,-3.9765173E-1,-7.097066E-1,-6.95768E-2,8.088945E-2,9.4481236E-1,-7.065005E-1,2.512793E-1,3.042091E-1,-9.2724067E-1,-1.8863185E-1,4.3505627E-1,1.7138967E-1,-4.8347986E-1,-1.3269994E-1,1.3540862E0,7.452696E-2,-8.3845896E-1,1.0114216E0,-3.061985E-1,2.2086692E-1,-7.782911E-2,-2.9841998E-1,-4.485879E-2,1.0582487E-1,-4.8592427E-1,-6.817384E-2,1.1247326E0,-1.9293936E-1,7.1789764E-2,-2.3666233E-1,8.256465E-2,5.8499956E-1,1.1603696E-1,-2.4323799E-2,-2.924158E-1,7.4689575E-2,3.8052934E-1,1.2452508E-1,-2.0351249E-1,-3.6364343E-2,2.4257894E-1,-2.585328E-1,-5.8465574E-2,2.66385E-1,-1.9029976E-1,-7.245201E-3,4.2014167E-1],"categories":[],"categories_nodes":[],"categories_segments":[],"categories_sizes":[],"default_left":[0,0,0,0,0,0,0,0,0,0,0,0,0,0,0,0,0,0,0,0,0,0,0,0,0,0,0,0,0,0,0,0,0,0,0,0,0,0,0,0,0,0,0,0,0,0,0,0,0,0,0,0,0],"id":26,"left_children":[1,-1,3,5,7,9,11,13,15,17,19,21,23,25,27,29,31,33,35,-1,37,-1,39,41,43,-1,-1,-1,-1,45,47,49,51,-1,-1,-1,-1,-1,-1,-1,-1,-1,-1,-1,-1,-1,-1,-1,-1,-1,-1,-1,-1],"loss_changes":[1.4370477E1,0E0,3.2412713E0,4.650255E0,4.534629E0,6.167224E0,3.7921715E0,3.251193E0,3.9753008E0,5.594837E0,5.698558E0,1.781138E0,3.0867524E0,9.533857E-1,4.460039E-1,4.702359E0,4.474829E0,5.3391485E0,3.7333035E0,0E0,3.3858185E0,0E0,1.076304E0,2.7307343E-1,1.5025381E0,0E0,0E0,0E0,0E0,4.487928E0,2.743538E0,5.0396085E0,1.74546E0,0E0,0E0,0E0,0E0,0E0,0E0,0E0,0E0,0E0,0E0,0E0,0E0,0E0,0E0,0E0,0E0,0E0,0E0,0E0,0E0],"parents":[2147483647,0,0,2,2,3,3,4,4,5,5,6,6,7,7,8,8,9,9,10,10,11,11,12,12,13,13,14,14,15,15,16,16,17,17,18,18,20,20,22,22,23,23,24,24,29,29,30,30,31,31,32,32],"right_children":[2,-1,4,6,8,10,12,14,16,18,20,22,24,26,28,30,32,34,36,-1,38,-1,40,42,44,-1,-1,-1,-1,46,48,50,52,-1,-1,-1,-1,-1,-1,-1,-1,-1,-1,-1,-1,-1,-1,-1,-1,-1,-1,-1,-1],"split_conditions":[8.5449E4,-2.835589E-1,4.900088E-2,2.673277E-2,4.565804E-2,2.517763E-2,3.7094906E-2,1.6033495E1,5.620691E-2,6.752622E-2,3.320146E0,3.6177002E-2,2.194454E-2,4.736057E-2,5.24766E-2,5.848058E-2,1.1246985E-1,3.710136E-2,7.9540804E-2,-1.3269994E-1,2.9538533E-2,7.452696E-2,3.4254845E-2,1.1524479E-1,1.1400828E-1,2.2086692E-1,-7.782911E-2,-2.9841998E-1,-4.485879E-2,5.4240555E-2,3.584584E-2,4.3172576E-2,5.3536832E-2,-1.9293936E-1,7.1789764E-2,-2.3666233E-1,8.256465E-2,5.8499956E-1,1.1603696E-1,-2.4323799E-2,-2.924158E-1,7.4689575E-2,3.8052934E-1,1.2452508E-1,-2.0351249E-1,-3.6364343E-2,2.4257894E-1,-2.585328E-1,-5.8465574E-2,2.66385E-1,-1.9029976E-1,-7.245201E-3,4.2014167E-1],"split_indices":[443,0,72,298,51,298,297,409,11,186,431,2,291,180,397,8,320,56,14,0,385,0,182,303,319,0,0,0,0,15,380,186,24,0,0,0,0,0,0,0,0,0,0,0,0,0,0,0,0,0,0,0,0],"split_type":[0,0,0,0,0,0,0,0,0,0,0,0,0,0,0,0,0,0,0,0,0,0,0,0,0,0,0,0,0,0,0,0,0,0,0,0,0,0,0,0,0,0,0,0,0,0,0,0,0,0,0,0,0],"sum_hessian":[2.2543033E2,1.723106E1,2.0819926E2,1.319358E2,7.626346E1,1.149006E2,1.7035204E1,1.2461653E1,6.3801807E1,1.0691804E2,7.982562E0,1.1481871E1,5.5533338E0,2.1309512E0,1.0330702E1,5.212942E1,1.1672382E1,9.27425E1,1.4175536E1,1.800245E0,6.1823173E0,1.2868607E0,1.0195009E1,2.0050669E0,3.5482666E0,1.0329946E0,1.0979565E0,9.24899E0,1.0817115E0,2.6513178E1,2.5616245E1,7.269362E0,4.4030204E0,6.48536E0,8.625714E1,1.0078786E1,4.09675E0,3.196906E0,2.9854112E0,1.7977202E0,8.397289E0,1.0017953E0,1.0032716E0,1.1684706E0,2.379796E0,2.06647E1,5.848477E0,1.0323416E1,1.52928295E1,2.4921927E0,4.777169E0,1.0288166E0,3.374204E0],"tree_param":{"num_deleted":"0","num_feature":"453","num_nodes":"53","size_leaf_vector":"1"}},{"base_weights":[-7.794734E-2,-2.7854678E-1,-1.9412434E-2,-2.033915E-1,5.6585815E-2,4.082275E-2,-5.9111524E-1,2.628278E-1,-9.768535E-2,2.280291E-1,-6.471763E-1,-7.069815E-1,1.3608778E-1,6.264768E-1,4.897302E-2,-5.432576E-1,2.101816E-2,1.3786473E0,7.7653445E-2,6.463767E-2,-7.9546E-1,6.647872E-2,-8.106298E-1,-4.9157023E-1,8.5281634E-1,-8.137063E-2,9.5693636E-1,2.4751608E-1,-7.752044E-1,-1.8190075E-1,3.7288782E-1,5.4151076E-1,6.123723E-2,-3.1760328E-2,2.2514637E-1,-2.6143572E-1,-4.745993E-2,-1.827429E-1,2.4458668E-1,-2.6281884E-1,2.3655154E-2,-2.2353832E-1,5.3136956E-2,3.2015437E-1,-9.918115E-2,8.268132E-2,-1.3607444E-1,4.0379485E-1,-6.572612E-2,-1.6485329E-1,1.8712148E-1,-2.7717566E-1,9.0249605E-2,4.705036E-2,-1.4325462E-1,-2.2634132E-1,1.5649384E-1],"categories":[],"categories_nodes":[],"categories_segments":[],"categories_sizes":[],"default_left":[0,0,0,0,0,0,0,0,0,0,0,0,0,0,0,0,0,0,0,0,0,0,0,0,0,0,0,0,0,0,0,0,0,0,0,0,0,0,0,0,0,0,0,0,0,0,0,0,0,0,0,0,0,0,0,0,0],"id":27,"left_children":[1,-1,3,5,7,9,11,13,15,17,19,21,-1,23,25,27,29,31,33,-1,35,37,39,41,43,45,47,49,51,53,55,-1,-1,-1,-1,-1,-1,-1,-1,-1,-1,-1,-1,-1,-1,-1,-1,-1,-1,-1,-1,-1,-1,-1,-1,-1,-1],"loss_changes":[1.0805625E1,0E0,2.8697944E0,5.7031574E0,4.6534324E0,5.0076003E0,3.1342363E0,4.83071E0,4.450928E0,5.1532435E0,1.2371478E0,1.7625179E0,0E0,6.255681E0,4.8647356E0,3.4373736E0,4.869003E0,1.3614888E0,3.5304096E0,0E0,2.167573E-1,2.2383778E0,1.1673574E0,8.979037E-1,5.311413E0,4.9470854E0,2.653881E0,1.7733825E0,2.5060253E0,4.4127436E0,4.5731506E0,0E0,0E0,0E0,0E0,0E0,0E0,0E0,0E0,0E0,0E0,0E0,0E0,0E0,0E0,0E0,0E0,0E0,0E0,0E0,0E0,0E0,0E0,0E0,0E0,0E0,0E0],"parents":[2147483647,0,0,2,2,3,3,4,4,5,5,6,6,7,7,8,8,9,9,10,10,11,11,13,13,14,14,15,15,16,16,17,17,18,18,20,20,21,21,22,22,23,23,24,24,25,25,26,26,27,27,28,28,29,29,30,30],"right_children":[2,-1,4,6,8,10,12,14,16,18,20,22,-1,24,26,28,30,32,34,-1,36,38,40,42,44,46,48,50,52,54,56,-1,-1,-1,-1,-1,-1,-1,-1,-1,-1,-1,-1,-1,-1,-1,-1,-1,-1,-1,-1,-1,-1,-1,-1,-1,-1],"split_conditions":[8.5449E4,-2.7854678E-1,2.5215662E-1,1.971926E-1,3.247773E-2,5.261779E1,1.9398293E-2,1.0968973E-1,1.0701506E3,4.188536E-2,3.9869465E-2,1.249536E6,1.3608778E-1,1.0334437E-1,2.7777E-1,4.15624E-2,1.1753696E-1,5.717227E-2,1.09485105E-1,6.463767E-2,5.8581606E-2,7.268224E6,1.21019125E-1,3.974381E-2,2.0018185E-2,2.3839042E-1,2.9654282E-1,3.6119685E-2,2.6885921E-2,1.4857695E-1,1.4370748E-1,5.4151076E-1,6.123723E-2,-3.1760328E-2,2.2514637E-1,-2.6143572E-1,-4.745993E-2,-1.827429E-1,2.4458668E-1,-2.6281884E-1,2.3655154E-2,-2.2353832E-1,5.3136956E-2,3.2015437E-1,-9.918115E-2,8.268132E-2,-1.3607444E-1,4.0379485E-1,-6.572612E-2,-1.6485329E-1,1.8712148E-1,-2.7717566E-1,9.0249605E-2,4.705036E-2,-1.4325462E-1,-2.2634132E-1,1.5649384E-1],"split_indices":[443,0,105,232,378,413,289,313,439,58,61,400,0,309,227,192,322,11,324,0,62,443,310,397,296,236,102,387,288,86,79,0,0,0,0,0,0,0,0,0,0,0,0,0,0,0,0,0,0,0,0,0,0,0,0,0,0],"split_type":[0,0,0,0,0,0,0,0,0,0,0,0,0,0,0,0,0,0,0,0,0,0,0,0,0,0,0,0,0,0,0,0,0,0,0,0,0,0,0,0,0,0,0,0,0,0,0,0,0,0,0,0,0,0,0,0,0],"sum_hessian":[2.164018E2,1.29770155E1,2.0342477E2,5.8976425E1,1.4444835E2,3.6733765E1,2.2242664E1,6.151137E1,8.293698E1,2.9401972E1,7.331792E0,2.0313145E1,1.9295194E0,2.2063713E1,3.9447655E1,1.6694597E1,6.6242386E1,2.4543307E0,2.6947641E1,1.0089929E0,6.322799E0,2.4427907E0,1.7870354E1,3.517336E0,1.8546377E1,3.52917E1,4.1559567E0,3.7710102E0,1.2923587E1,4.2320004E1,2.392238E1,1.4067959E0,1.0475347E0,2.18347E1,5.112942E0,5.320802E0,1.0019966E0,1.3822029E0,1.0605879E0,1.6659885E1,1.2104686E0,2.467425E0,1.0499108E0,1.5785257E1,2.761121E0,1.8147032E1,1.7144669E1,3.0142698E0,1.1416869E0,1.0615381E0,2.7094722E0,1.1478554E1,1.4450334E0,1.9940403E1,2.23796E1,2.3140037E0,2.1608376E1],"tree_param":{"num_deleted":"0","num_feature":"453","num_nodes":"57","size_leaf_vector":"1"}},{"base_weights":[-6.778384E-2,-2.7228722E-1,-2.1919584E-2,-2.202382E-1,-3.803472E-3,3.3539873E-2,-3.4223986E-1,6.8679076E-1,8.738167E-6,-6.1373556E-1,1.0339568E-1,-2.1837954E-1,1.1723902E0,-7.0841956E-1,3.9714288E-2,-7.556853E-1,4.8912168E-2,4.5348737E-1,-1.9521034E-1,1.6163447E-1,-2.0411362E-1,4.6753877E-1,-7.5203724E-2,-2.6028907E-1,8.082447E-2,-2.3049457E-2,6.726902E-2,6.131047E-3,-2.615916E-1,-5.0938405E-2,2.4400263E-1],"categories":[],"categories_nodes":[],"categories_segments":[],"categories_sizes":[],"default_left":[0,0,0,0,0,0,0,0,0,0,0,0,0,0,0,0,0,0,0,0,0,0,0,0,0,0,0,0,0,0,0],"id":28,"left_children":[1,-1,3,-1,5,7,9,11,13,15,17,19,21,23,25,27,-1,29,-1,-1,-1,-1,-1,-1,-1,-1,-1,-1,-1,-1,-1],"loss_changes":[8.048658E0,0E0,2.5731668E0,0E0,2.4848268E0,3.880652E0,2.4272335E0,4.0580444E0,4.7963386E0,1.4777803E0,2.4737296E0,1.7179286E0,3.5699105E0,1.6426272E0,3.489461E0,9.712739E-1,0E0,1.5343521E0,0E0,0E0,0E0,0E0,0E0,0E0,0E0,0E0,0E0,0E0,0E0,0E0,0E0],"parents":[2147483647,0,0,2,2,4,4,5,5,6,6,7,7,8,8,9,9,10,10,11,11,12,12,13,13,14,14,15,15,17,17],"right_children":[2,-1,4,-1,6,8,10,12,14,16,18,20,22,24,26,28,-1,30,-1,-1,-1,-1,-1,-1,-1,-1,-1,-1,-1,-1,-1],"split_conditions":[8.5449E4,-2.7228722E-1,3.5852626E-1,-2.202382E-1,6.852234E-2,1.5677044E-2,5.8173094E-2,6.35152E-2,1.00406125E-1,5.9070747E-2,2.9142895E-1,4.3710597E-2,6.87007E-2,1.1558984E-1,1.4679374E0,3.420332E-2,4.8912168E-2,2.8943462E-2,-1.9521034E-1,1.6163447E-1,-2.0411362E-1,4.6753877E-1,-7.5203724E-2,-2.6028907E-1,8.082447E-2,-2.3049457E-2,6.726902E-2,6.131047E-3,-2.615916E-1,-5.0938405E-2,2.4400263E-1],"split_indices":[443,0,425,0,19,397,72,12,300,52,120,183,12,324,433,53,0,397,0,0,0,0,0,0,0,0,0,0,0,0,0],"split_type":[0,0,0,0,0,0,0,0,0,0,0,0,0,0,0,0,0,0,0,0,0,0,0,0,0,0,0,0,0,0,0],"sum_hessian":[2.0847136E2,9.822267E0,1.986491E2,3.9472053E0,1.9470189E2,1.7616463E2,1.8537252E1,7.649793E0,1.6851485E2,1.12849045E1,7.2523475E0,2.8631303E0,4.7866626E0,8.04971E0,1.6046513E2,9.564262E0,1.7206423E0,5.225178E0,2.0271695E0,1.0219996E0,1.8411309E0,3.6903467E0,1.0963162E0,7.0195E0,1.0302105E0,9.870416E1,6.176097E1,1.3536916E0,8.21057E0,2.1058764E0,3.1193013E0],"tree_param":{"num_deleted":"0","num_feature":"453","num_nodes":"31","size_leaf_vector":"1"}},{"base_weights":[-5.6619998E-2,-2.64633E-1,-2.0835586E-2,-3.5765827E-2,2.3612534E-1,3.8503252E-3,-3.7146467E-1,-9.0601645E-2,1.8260334E-1,-7.161867E-1,-4.758126E-2,1.5662788E-1,-3.191313E-1,-3.0667484E-1,3.9399526E-1,2.1373862E-2,-8.1446606E-1,-4.7539258E-1,4.8525456E-1,-3.9094232E-2,1.684484E-1,-1.2725373E-1,1.3441297E-1,9.316556E-2,-1.9670253E-1,1.7864761E-1,-1.1641687E-1,-2.6708156E-1,-3.4561183E-2,8.706349E-2,-2.2469045E-1,2.8188485E-1,-2.2217033E-2],"categories":[],"categories_nodes":[],"categories_segments":[],"categories_sizes":[],"default_left":[0,0,0,0,0,0,0,0,0,0,0,0,0,0,0,0,0,0,0,0,0,0,0,0,0,0,0,0,0,0,0,0,0],"id":29,"left_children":[1,-1,3,5,-1,7,9,11,13,15,17,19,21,23,25,-1,27,29,31,-1,-1,-1,-1,-1,-1,-1,-1,-1,-1,-1,-1,-1,-1],"loss_changes":[6.0286474E0,0E0,2.407196E0,2.5895073E0,0E0,2.9720776E0,2.2605178E0,6.5588636E0,6.414606E0,8.229675E-1,2.8902845E0,6.5798235E0,5.041137E0,4.27944E0,6.996015E0,0E0,3.67517E-1,1.678603E0,1.5157708E0,0E0,0E0,0E0,0E0,0E0,0E0,0E0,0E0,0E0,0E0,0E0,0E0,0E0,0E0],"parents":[2147483647,0,0,2,2,3,3,5,5,6,6,7,7,8,8,9,9,10,10,11,11,12,12,13,13,14,14,16,16,17,17,18,18],"right_children":[2,-1,4,6,-1,8,10,12,14,16,18,20,22,24,26,-1,28,30,32,-1,-1,-1,-1,-1,-1,-1,-1,-1,-1,-1,-1,-1,-1],"split_conditions":[8.5449E4,-2.64633E-1,2E-1,1.6157299E1,2.3612534E-1,2.026415E-2,3.1034255E-2,4.56593E6,1.109633E-1,-2.3430255E2,7.510597E-2,4.9413996E0,5.734945E-2,1.0671797E-1,2.4417395E-2,2.1373862E-2,5.2418955E-2,1.6057819E-1,4.6216816E-2,-3.9094232E-2,1.684484E-1,-1.2725373E-1,1.3441297E-1,9.316556E-2,-1.9670253E-1,1.7864761E-1,-1.1641687E-1,-2.6708156E-1,-3.4561183E-2,8.706349E-2,-2.2469045E-1,2.8188485E-1,-2.2217033E-2],"split_indices":[443,0,451,423,0,276,390,400,318,438,7,420,182,304,295,0,54,368,380,0,0,0,0,0,0,0,0,0,0,0,0,0,0],"split_type":[0,0,0,0,0,0,0,0,0,0,0,0,0,0,0,0,0,0,0,0,0,0,0,0,0,0,0,0,0,0,0,0,0],"sum_hessian":[2.0370866E2,7.4810877E0,1.9622757E2,1.936055E2,2.6220694E0,1.7405377E2,1.9551727E1,1.1420285E2,5.985092E1,8.884428E0,1.0667299E1,5.500817E1,5.9194683E1,1.7921013E1,4.192991E1,1.016345E0,7.868083E0,5.9765573E0,4.6907425E0,3.2589256E1,2.2418913E1,5.2458702E1,6.735981E0,6.512845E0,1.1408168E1,3.3529526E1,8.400382E0,6.8521004E0,1.0159826E0,1.5573859E0,4.4191713E0,2.2130222E0,2.4777203E0],"tree_param":{"num_deleted":"0","num_feature":"453","num_nodes":"33","size_leaf_vector":"1"}},{"base_weights":[-4.836845E-2,-2.5550514E-1,-2.0048495E-2,-2.3202117E-1,4.2417925E-2,8.660126E-2,-5.6967586E-1,3.990789E-1,-5.8733758E-2,4.4016087E-1,-4.294534E-1,-7.803416E-1,2.555051E-1,6.1020863E-1,-5.5093414E-1,3.007198E-1,-1.4469784E-1,1.1452135E0,-1.0691133E-1,1.7861566E-1,-6.919752E-1,-8.945051E-1,4.9194027E-2,2.6871902E-1,-3.5301492E-1,-1.982909E-1,8.6436635E-1,-2.4252196E-1,6.140809E-2,-2.1090057E-1,6.755735E-1,1.014932E-1,-3.178757E-1,4.8214713E-1,1.4768711E-2,-1.4205565E-1,1.7327973E-1,2.0067893E-1,-1.6391611E-1,-2.7632713E-1,9.725552E-3,-2.87664E-1,-9.820578E-3,1.4217134E-1,-1.1703826E-1,-1.7882152E-1,3.2459017E-2,-1.6842055E-1,2.583806E-1,3.17194E-1,2.430174E-3,9.770212E-2,-1.5439093E-1,2.632407E-1,-6.87447E-2,-6.706863E-2,1.5145968E-1,-1.5433055E-1,1.9439453E-2],"categories":[],"categories_nodes":[],"categories_segments":[],"categories_sizes":[],"default_left":[0,0,0,0,0,0,0,0,0,0,0,0,0,0,0,0,0,0,0,0,0,0,0,0,0,0,0,0,0,0,0,0,0,0,0,0,0,0,0,0,0,0,0,0,0,0,0,0,0,0,0,0,0,0,0,0,0,0,0],"id":30,"left_children":[1,-1,3,5,7,9,11,13,15,17,19,21,23,25,27,29,31,33,35,37,39,41,43,-1,45,47,49,-1,-1,51,53,55,57,-1,-1,-1,-1,-1,-1,-1,-1,-1,-1,-1,-1,-1,-1,-1,-1,-1,-1,-1,-1,-1,-1,-1,-1,-1,-1],"loss_changes":[4.5029254E0,0E0,2.5646064E0,4.790663E0,5.4302835E0,4.4844966E0,3.9418077E0,7.003619E0,3.6782517E0,5.701659E0,1.7323357E0,1.6915131E0,2.3154507E0,5.857544E0,1.4436496E0,4.5586233E0,4.108235E0,3.1637259E0,2.5469391E0,1.7283115E0,1.2321589E0,8.198528E-1,7.544174E-1,0E0,4.3983772E-1,3.3427658E0,3.5005722E0,0E0,0E0,1.8787274E0,2.6720161E0,5.3886347E0,4.273026E0,0E0,0E0,0E0,0E0,0E0,0E0,0E0,0E0,0E0,0E0,0E0,0E0,0E0,0E0,0E0,0E0,0E0,0E0,0E0,0E0,0E0,0E0,0E0,0E0,0E0,0E0],"parents":[2147483647,0,0,2,2,3,3,4,4,5,5,6,6,7,7,8,8,9,9,10,10,11,11,12,12,13,13,14,14,15,15,16,16,17,17,18,18,19,19,20,20,21,21,22,22,24,24,25,25,26,26,29,29,30,30,31,31,32,32],"right_children":[2,-1,4,6,8,10,12,14,16,18,20,22,24,26,28,30,32,34,36,38,40,42,44,-1,46,48,50,-1,-1,52,54,56,58,-1,-1,-1,-1,-1,-1,-1,-1,-1,-1,-1,-1,-1,-1,-1,-1,-1,-1,-1,-1,-1,-1,-1,-1,-1,-1],"split_conditions":[8.5449E4,-2.5550514E-1,2.331257E6,1.9215906E-2,3.923321E6,9.5E1,2.869886E-1,5.8244437E-2,3.941112E-2,6.901394E-1,2.505917E0,6.0408723E-2,2.9728305E-1,4.6754472E-2,7.567884E-2,3.6137387E-2,1.0887645E-1,4.9007967E-2,5.386133E0,1.017174E6,1.10649936E-1,3.5531774E-2,2.6324198E-1,2.6871902E-1,2.7245438E-2,2.4255397E-2,3.9999463E-2,-2.4252196E-1,6.140809E-2,1.0786526E-1,3.8175797E1,1.0396634E-1,5.449841E-2,4.8214713E-1,1.4768711E-2,-1.4205565E-1,1.7327973E-1,2.0067893E-1,-1.6391611E-1,-2.7632713E-1,9.725552E-3,-2.87664E-1,-9.820578E-3,1.4217134E-1,-1.1703826E-1,-1.7882152E-1,3.2459017E-2,-1.6842055E-1,2.583806E-1,3.17194E-1,2.430174E-3,9.770212E-2,-1.5439093E-1,2.632407E-1,-6.87447E-2,-6.706863E-2,1.5145968E-1,-1.5433055E-1,1.9439453E-2],"split_indices":[443,0,400,280,400,437,238,191,0,425,430,15,106,197,186,0,323,192,420,400,324,287,124,0,284,286,396,0,0,313,411,306,61,0,0,0,0,0,0,0,0,0,0,0,0,0,0,0,0,0,0,0,0,0,0,0,0,0,0],"split_type":[0,0,0,0,0,0,0,0,0,0,0,0,0,0,0,0,0,0,0,0,0,0,0,0,0,0,0,0,0,0,0,0,0,0,0,0,0,0,0,0,0,0,0,0,0,0,0,0,0,0,0,0,0,0,0,0,0,0,0],"sum_hessian":[1.9768265E2,5.7416997E0,1.9194095E2,4.3070793E1,1.4887016E2,2.2542473E1,2.052832E1,3.2241444E1,1.16628716E2,1.3464639E1,9.077834E0,1.6396652E1,4.131667E0,2.6671652E1,5.569791E0,2.20268E1,9.460192E1,5.405203E0,8.059436E0,2.833748E0,6.2440863E0,1.4344232E1,2.0524213E0,1.7833843E0,2.3482828E0,6.431682E0,2.023997E1,4.102171E0,1.4676198E0,9.499185E0,1.2527616E1,3.9236675E1,5.5365242E1,3.4743874E0,1.9308156E0,5.4492073E0,2.6102283E0,1.7366236E0,1.0971245E0,4.5374303E0,1.7066561E0,1.3242332E1,1.1018994E0,1.0035393E0,1.048882E0,1.3463548E0,1.001928E0,5.140268E0,1.291414E0,1.6326284E1,3.913685E0,3.407438E0,6.0917463E0,1.0266659E1,2.2609565E0,2.1974457E1,1.726222E1,3.634989E1,1.9015348E1],"tree_param":{"num_deleted":"0","num_feature":"453","num_nodes":"59","size_leaf_vector":"1"}},{"base_weights":[-4.429522E-2,-2.4492826E-1,-2.1510685E-2,2.9282417E-2,-2.6310343E-1,4.207905E-1,-2.2227742E-2,-5.3063416E-1,1.1360137E-2,9.459511E-1,9.980113E-2,-1.8084398E-1,1.084466E-1,1.4035086E-1,-6.820264E-1,6.774527E-1,-2.4574673E-1,1.2636096E0,8.058054E-3,-2.212331E-1,4.7323257E-1,-1.1818857E-2,-6.0512877E-1,-1.9808957E-1,2.5345165E-1,1.4646606E-1,-1.08577676E-1,-1.8644448E-1,-8.1150657E-1,1.0002698E0,-8.098634E-2,-5.953253E-1,2.7983564E-1,6.540863E-2,4.4267532E-1,-2.7195303E-2,2.8854585E-1,2.1674106E-1,-4.975785E-2,-2.2474334E-1,1.6181603E-1,-2.158002E-1,2.114562E-2,2.1169944E-1,2.9885381E-2,-1.7055532E-1,1.3179809E-1,-4.535342E-2,-2.6113644E-1,4.3283314E-2,3.825981E-1,-2.3351353E-1,5.6072168E-2,2.3955315E-1,-1.2837166E-1],"categories":[],"categories_nodes":[],"categories_segments":[],"categories_sizes":[],"default_left":[0,0,0,0,0,0,0,0,0,0,0,0,0,0,0,0,0,0,0,0,0,0,0,0,0,0,0,0,0,0,0,0,0,0,0,0,0,0,0,0,0,0,0,0,0,0,0,0,0,0,0,0,0,0,0],"id":31,"left_children":[1,-1,3,5,7,9,11,13,15,17,19,21,23,25,27,29,31,33,-1,-1,35,37,39,41,43,-1,-1,45,47,49,-1,51,53,-1,-1,-1,-1,-1,-1,-1,-1,-1,-1,-1,-1,-1,-1,-1,-1,-1,-1,-1,-1,-1,-1],"loss_changes":[3.342387E0,0E0,2.2967641E0,3.1358488E0,2.392825E0,2.9526844E0,2.8790565E0,1.7699571E0,3.081944E0,1.9336267E0,4.2061176E0,4.488713E0,3.44018E0,8.517471E-1,7.2254944E-1,1.8014469E0,2.5581696E0,7.83483E-1,0E0,0E0,2.605489E0,5.3060646E0,3.3445768E0,3.5579393E0,3.5619457E0,0E0,0E0,1.2346393E0,2.7707863E-1,7.453642E-1,0E0,1.310617E0,2.5000424E0,0E0,0E0,0E0,0E0,0E0,0E0,0E0,0E0,0E0,0E0,0E0,0E0,0E0,0E0,0E0,0E0,0E0,0E0,0E0,0E0,0E0,0E0],"parents":[2147483647,0,0,2,2,3,3,4,4,5,5,6,6,7,7,8,8,9,9,10,10,11,11,12,12,13,13,14,14,15,15,16,16,17,17,20,20,21,21,22,22,23,23,24,24,27,27,28,28,29,29,31,31,32,32],"right_children":[2,-1,4,6,8,10,12,14,16,18,20,22,24,26,28,30,32,34,-1,-1,36,38,40,42,44,-1,-1,46,48,50,-1,52,54,-1,-1,-1,-1,-1,-1,-1,-1,-1,-1,-1,-1,-1,-1,-1,-1,-1,-1,-1,-1,-1,-1],"split_conditions":[8.5449E4,-2.4492826E-1,6.4328834E-2,1.62399E-3,4.2331435E-2,2.82E0,4.975832E-2,3.0779041E-2,4.712379E-2,1.832467E-2,3.676435E0,5.036968E1,1.10649936E-1,5.62122E-2,4.459607E-2,2.1985155E1,2.0909673E-2,4.366319E-2,8.058054E-3,-2.212331E-1,4.7370207E-2,2.391017E-2,5.609115E1,3.6940154E-2,1.3698927E-1,1.4646606E-1,-1.08577676E-1,5.963508E-2,1.675645E1,4.2983063E-2,-8.098634E-2,1.1203322E-1,1.7247897E-1,6.540863E-2,4.4267532E-1,-2.7195303E-2,2.8854585E-1,2.1674106E-1,-4.975785E-2,-2.2474334E-1,1.6181603E-1,-2.158002E-1,2.114562E-2,2.1169944E-1,2.9885381E-2,-1.7055532E-1,1.3179809E-1,-4.535342E-2,-2.6113644E-1,4.3283314E-2,3.825981E-1,-2.3351353E-1,5.6072168E-2,2.3955315E-1,-1.2837166E-1],"split_indices":[443,0,4,293,70,404,194,73,58,389,428,413,324,23,199,438,277,197,0,0,178,378,415,50,94,0,0,20,409,50,0,303,369,0,0,0,0,0,0,0,0,0,0,0,0,0,0,0,0,0,0,0,0,0,0],"split_type":[0,0,0,0,0,0,0,0,0,0,0,0,0,0,0,0,0,0,0,0,0,0,0,0,0,0,0,0,0,0,0,0,0,0,0,0,0,0,0,0,0,0,0,0,0,0,0,0,0,0,0,0,0,0,0],"sum_hessian":[1.8998566E2,4.4471226E0,1.8553853E2,1.5403302E2,3.150552E1,1.7076012E1,1.36957E2,1.5481614E1,1.6023905E1,5.7392383E0,1.1336773E1,6.16909E1,7.5266106E1,2.8634522E0,1.2618161E1,4.0072713E0,1.2016634E1,3.9865499E0,1.7526885E0,3.1961439E0,8.140629E0,4.485112E1,1.6839779E1,2.405291E1,5.1213192E1,1.7082963E0,1.1551559E0,3.1192522E0,9.498909E0,2.9472394E0,1.0600319E0,7.13696E0,4.8796744E0,1.0139127E0,2.9726372E0,4.15721E0,3.9834197E0,7.137514E0,3.7713608E1,1.5264482E1,1.5752978E0,7.608386E0,1.6444523E1,1.2088974E1,3.9124218E1,1.9935539E0,1.1256984E0,1.070616E0,8.428293E0,1.087481E0,1.8597585E0,5.787526E0,1.3494339E0,2.7419546E0,2.1377199E0],"tree_param":{"num_deleted":"0","num_feature":"453","num_nodes":"55","size_leaf_vector":"1"}},{"base_weights":[-3.7208997E-2,-2.3305382E-1,-1.8714556E-2,-3.296126E-2,2.2491506E-1,-2.116844E-1,2.9095616E-2,-5.073673E-1,2.6915422E-2,9.101584E-2,-3.137841E-1,-4.649785E-2,-7.1752346E-1,4.5945805E-1,-2.5347272E-1,-9.7061485E-2,2.5887525E-1,3.5263476E-1,-5.043021E-1,1.4034578E-1,-1.5837786E-1,-2.564992E-1,-4.736528E-3,2.3097953E-1,-1.5849954E-1,-2.2599709E-1,4.2435873E-2,-7.7131346E-2,1.294253E-1,-2.3671508E-2,1.3994431E-1,-1.3595665E-1,2.679397E-1,-2.0248781E-1,9.497851E-2],"categories":[],"categories_nodes":[],"categories_segments":[],"categories_sizes":[],"default_left":[0,0,0,0,0,0,0,0,0,0,0,0,0,0,0,0,0,0,0,0,0,0,0,0,0,0,0,0,0,0,0,0,0,0,0],"id":32,"left_children":[1,-1,3,5,-1,7,9,11,13,15,17,19,21,23,25,27,29,31,33,-1,-1,-1,-1,-1,-1,-1,-1,-1,-1,-1,-1,-1,-1,-1,-1],"loss_changes":[2.5120182E0,0E0,2.0086377E0,1.9901078E0,0E0,3.2747428E0,2.8662202E0,1.9708486E0,3.3341148E0,3.623724E0,2.8021243E0,2.116421E0,1.3508735E0,3.7158353E0,3.4112997E0,4.719054E0,4.2795844E0,2.6625443E0,2.5231915E0,0E0,0E0,0E0,0E0,0E0,0E0,0E0,0E0,0E0,0E0,0E0,0E0,0E0,0E0,0E0,0E0],"parents":[2147483647,0,0,2,2,3,3,5,5,6,6,7,7,8,8,9,9,10,10,11,11,12,12,13,13,14,14,15,15,16,16,17,17,18,18],"right_children":[2,-1,4,6,-1,8,10,12,14,16,18,20,22,24,26,28,30,32,34,-1,-1,-1,-1,-1,-1,-1,-1,-1,-1,-1,-1,-1,-1,-1,-1],"split_conditions":[8.5449E4,-2.3305382E-1,2E-1,5.5E1,2.2491506E-1,1.253443E0,6.162434E-2,-3.0586243E1,3.755998E0,1.6169386E-2,9.9780396E-2,4.99481E-2,5.2562267E-2,4.5525767E-2,7.6862454E-2,4.657534E-1,5.4160133E-2,4.101392E-2,4.9698114E-2,1.4034578E-1,-1.5837786E-1,-2.564992E-1,-4.736528E-3,2.3097953E-1,-1.5849954E-1,-2.2599709E-1,4.2435873E-2,-7.7131346E-2,1.294253E-1,-2.3671508E-2,1.3994431E-1,-1.3595665E-1,2.679397E-1,-2.0248781E-1,9.497851E-2],"split_indices":[443,0,451,401,0,433,185,440,434,285,309,62,59,54,13,436,14,177,393,0,0,0,0,0,0,0,0,0,0,0,0,0,0,0,0],"split_type":[0,0,0,0,0,0,0,0,0,0,0,0,0,0,0,0,0,0,0,0,0,0,0,0,0,0,0,0,0,0,0,0,0,0,0],"sum_hessian":[1.8370097E2,3.4810522E0,1.8021992E2,1.7787915E2,2.3407707E0,4.5223843E1,1.3265532E2,1.9693007E1,2.5530836E1,1.12985886E2,1.9669426E1,6.550064E0,1.3142942E1,9.789834E0,1.5741003E1,5.348294E1,5.9502945E1,4.1838126E0,1.5485613E1,3.180527E0,3.3695369E0,1.08073225E1,2.3356197E0,7.6164474E0,2.173386E0,6.547028E0,9.1939745E0,4.1445282E1,1.2037662E1,2.2886276E1,3.6616673E1,1.7444938E0,2.4393187E0,1.2967552E1,2.518061E0],"tree_param":{"num_deleted":"0","num_feature":"453","num_nodes":"35","size_leaf_vector":"1"}},{"base_weights":[-3.392535E-2,-2.2015914E-1,-1.8889446E-2,-2.0282803E-1,3.5595365E-2,1.9155659E-1,-3.7952125E-1,-8.444145E-2,2.754927E-1,5.397646E-1,-3.8700894E-1,-5.047469E-1,2.6189008E-1,1.411654E-3,-4.8896295E-1,1.5024738E0,1.6281085E-1,-4.6834286E-2,9.474939E-1,-2.0615327E-1,6.645843E-2,-6.1474067E-1,1.302268E-1,2.5662053E-1,-2.8946173E-1,2.8334874E-1,-1.8390782E-1,-2.0561926E-2,-8.19456E-1,5.995813E-1,4.2931706E-2,-2.7301034E-1,3.7392324E-1,9.632444E-2,-1.678713E-1,3.7798792E-1,3.62854E-2,-5.271005E-2,-2.4494864E-1,-7.9478845E-2,1.8901612E-1,-1.716435E-1,5.2734833E-2,1.3451427E-1,-1.1075141E-1,-9.9583335E-2,1.147949E-1,-1.6497797E-1,1.5651187E-1,-2.704394E-1,-1.9144947E-2,-1.5359378E-1,1.4659111E-1,1.4830312E-1,-2.143919E-1],"categories":[],"categories_nodes":[],"categories_segments":[],"categories_sizes":[],"default_left":[0,0,0,0,0,0,0,0,0,0,0,0,0,0,0,0,0,0,0,0,0,0,0,0,0,0,0,0,0,0,0,0,0,0,0,0,0,0,0,0,0,0,0,0,0,0,0,0,0,0,0,0,0,0,0],"id":33,"left_children":[1,-1,3,5,7,9,11,13,15,17,19,21,23,25,27,29,31,33,35,-1,-1,37,39,-1,41,43,45,47,49,-1,-1,51,53,-1,-1,-1,-1,-1,-1,-1,-1,-1,-1,-1,-1,-1,-1,-1,-1,-1,-1,-1,-1,-1,-1],"loss_changes":[1.8797E0,0E0,1.7827629E0,2.9044044E0,3.9836855E0,2.8757133E0,2.413175E0,3.2107482E0,6.1292124E0,2.1207402E0,1.1671039E0,1.7633634E0,1.9809937E0,4.0880504E0,2.4886863E0,2.2471952E0,4.0901136E0,1.0309719E0,1.1824965E0,0E0,0E0,1.6916695E0,1.0327466E0,0E0,5.5999386E-1,3.5070448E0,4.087021E0,2.5033872E0,5.2893925E-1,0E0,0E0,2.9298286E0,4.236304E0,0E0,0E0,0E0,0E0,0E0,0E0,0E0,0E0,0E0,0E0,0E0,0E0,0E0,0E0,0E0,0E0,0E0,0E0,0E0,0E0,0E0,0E0],"parents":[2147483647,0,0,2,2,3,3,4,4,5,5,6,6,7,7,8,8,9,9,10,10,11,11,12,12,13,13,14,14,15,15,16,16,17,17,18,18,21,21,22,22,24,24,25,25,26,26,27,27,28,28,31,31,32,32],"right_children":[2,-1,4,6,8,10,12,14,16,18,20,22,24,26,28,30,32,34,36,-1,-1,38,40,-1,42,44,46,48,50,-1,-1,52,54,-1,-1,-1,-1,-1,-1,-1,-1,-1,-1,-1,-1,-1,-1,-1,-1,-1,-1,-1,-1,-1,-1],"split_conditions":[8.5449E4,-2.2015914E-1,4.2598225E-2,3.4658708E-2,1.6579332E-2,1.0654709E-1,8.614298E6,5.338708E1,1.6885681E-2,3.12759E-2,3.571429E-1,4.653588E-2,4.6774276E-2,2.3646297E-2,4.512305E-2,2.702982E-1,